That 0.032659 0.060241 0.02137 0.0067451 -0.00049341 0.029992 0.013047 0.012159 -0.021069 0.09801 0.00030034 -0.018184 -0.015197 0.010048 0.010878 -0.00073582 -0.0069717 0.01028 -0.063708 0.0056432 0.079087 0.048995 -0.030034 0.0042219 0.00064212 0.0081581 -0.085877 -0.00053306 -0.03019 -0.013077 0.011611 -0.009212 -0.0038954 0.035084 0.037834 0.048342 -0.01641 0.0099534 0.023229 0.029023 0.010972 -0.024977 -0.00055915 0.015108 0.012716 0.031032 -0.031537 0.0049517 -0.057107 0.013727 0.0045877 -0.00071554 0.014599 -0.013365 -0.012622 -0.010923 0.15554 0.0078031 -0.011814 0.052854 -0.019683 -0.023273 -0.053811 -0.017528 -0.0088402 -0.0070264 0.020488 -0.084627 -0.0044326 -0.0093311 0.0048979 -0.049411 -0.0043875 -0.012545 0.017972 0.010145 0.0058251 -0.022313 0.071628 -0.0008138 0.014821 -0.015922 -0.084397 0.0037989 0.01737 -0.0079768 0.014019 -0.0047148 0.057725 0.011175 -0.052143 -0.0049676 -0.053612 0.048045 -0.0042991 0.1661 -0.0043491 0.011071 0.02039 -0.016764 -0.020053 0.0098546 0.014098 -0.0020223 -0.018738 0.014656 0.0093045 0.0075884 0.008074 0.0095148 -0.013196 -0.0063885 0.025395 -0.028383 -0.019385 -0.014489 -0.12996 -0.017711 0.0040839 -0.13926 0.010871 -0.013876 -0.02373 -0.030022 -0.002851 0.04254 0.0073748 -0.051843 -0.0089337 -0.015515 -0.0065994 0.0086556 -0.001029 0.042175 0.00038006 0.017846 -0.007053 -0.033141 -0.042722 0.018691 -0.016049 0.012634 -0.0067392 0.070949 -0.0071921 -0.0084154 0.014417 0.02012 0.0081343 0.004859 -0.017036 0.0067342 -0.021568 0.052694 0.011328 -0.012227 -0.089577 -0.047669 0.012068 0.0095704 -0.021348 0.018623 0.024938 -0.03053 -0.0013601 0.022315 0.010122 -0.0082682 -0.02165 -0.00030738 -0.012042 0.034396 0.0014799 0.025591 -0.0049036 0.0026234 -0.073797 0.0053939 -0.0049741 0.027068 -0.01644 -0.0018129 -0.0080658 0.036438 -0.015431 -0.023328 -0.015686 -0.05553 0.015521 -0.021684 0.0051572 -0.019334 -0.080109 0.0067687 -0.019118 0.0076976 0.008791 0.00037764 0.0086938 0.0064276 -0.085038 -0.0086422 -0.0061286 0.0052795 0.022483 0.043595 0.031862 -0.004958 -0.028524 0.0065172 -0.099021 -0.0059541 0.072668 -0.020371 0.0050412 0.018239 0.002422 -0.015097 -0.077464 0.018653 0.01277 -0.017951 -0.051487 0.028267 0.14414 0.004942 0.0078643 0.010278 0.011423 0.01463 -0.05702 -0.0094303 -0.080455 -0.011698 -0.021009 0.00048421 -0.01111 -0.017946 -0.015444 0.0094286 -0.020449 -0.0096186 0.0070903 0.024802 0.0050754 -0.065911 0.011146 0.063785 -0.00072112 -0.025949 -0.064643 -0.011854 -0.024533 0.0077106 -0.046276 -0.036185 -0.0063571 0.023445 -0.016193 0.0026441 0.01342 -0.039313 0.0064362 -0.0025831 0.0077355 0.0087866 0.0085869 0.0029212 -0.044438 0.022951 0.0098995 -0.010928 -0.069029 -0.0008061 -0.011542 -0.013619 0.029958 0.0085795 -0.0066867 -0.017081 0.020383 0.013463 -0.013916 -0.044089 0.028448 0.043471 -0.0074828 0.062063 -0.012048 -0.018762 -0.0014752 0.012894 0.064421 0.0076463 -0.01637 0.078309 0.020388 -0.024057 0.051238 -0.010941 
I 0.12265 0.13758 -0.1511 0.016203 -0.055427 0.18189 -0.14827 -0.00084638 -0.14135 -0.054655 -0.09753 -0.042509 0.0011976 0.028021 0.094223 -0.047281 -0.035838 0.15779 -0.13601 0.20393 -0.082468 0.055095 -0.059914 -0.086976 0.022967 -0.045869 0.52937 -0.025973 0.068284 0.049782 -0.089347 0.036094 0.029925 0.17239 -0.10936 -0.10797 0.063193 -0.0015101 0.031422 0.015378 -0.16267 0.28551 -0.042807 0.14682 -0.012197 -0.031903 -0.089874 0.030871 -0.24541 0.08291 0.05158 -0.074192 0.081966 0.090222 -0.15609 0.048474 0.057056 -0.030221 0.090718 0.0056816 0.0020752 -0.10346 0.09476 -0.031796 0.024356 -0.017059 0.021256 0.018162 -0.056078 -0.30083 -0.013705 -0.071567 -0.076775 -0.033709 0.05494 0.061508 0.088465 -0.17169 -0.26193 0.00035817 0.080032 -0.044856 -0.6585 0.011504 0.11952 -0.079624 -0.083063 0.010819 0.0046649 -0.032887 0.072047 0.020154 0.26087 0.17198 -0.094619 0.27725 0.037225 -0.091599 0.0093609 0.018334 -0.031668 0.072562 -0.013337 0.013991 -0.0067309 0.0041798 0.014092 0.039363 0.14057 0.05706 -0.1332 -0.013067 0.063615 0.010602 -0.081909 -0.020131 0.16527 -0.052356 0.060453 -1.2496 0.028504 -0.13615 -0.0041187 0.039939 -0.0032853 0.059303 0.14219 -0.016383 -0.15454 0.20781 -0.035294 0.049153 -0.022198 -0.21481 -0.045617 0.078901 0.040172 -0.026188 0.41413 0.054147 0.090221 -0.064792 -0.29044 -0.15438 -0.074148 -0.040828 -0.033987 -0.21105 -0.038352 0.002915 0.074231 0.040383 -0.18481 -0.6543 0.00037022 0.10989 0.037448 -0.14637 -0.083789 -0.021992 -0.072245 -0.039314 -0.11605 -0.08558 -0.052339 -0.23929 0.072578 0.026047 -0.04991 0.066278 0.041601 0.25992 0.067436 -0.019961 0.00066897 0.11441 -0.46518 0.11767 -0.038931 0.14233 -0.22135 -0.11914 0.013956 -0.55013 0.055992 -0.061109 0.048785 -0.058773 0.055366 0.027113 -0.047739 -0.076163 -0.5569 -0.028183 -0.05163 0.059363 -0.19193 -0.045061 -0.095695 0.16591 0.22161 0.024268 -0.053214 0.047793 0.022931 -0.021022 0.043849 0.011225 0.043636 0.065162 -1.3138 0.07503 0.23732 -0.0174 -0.089191 -0.0010803 0.17729 -0.060325 0.077586 -0.042776 0.13926 0.088081 0.63512 -0.030497 0.15457 0.092672 0.041795 -0.10375 0.11435 -0.021819 0.11883 -0.013766 0.13761 0.061188 -0.046851 -0.044113 -0.087455 0.054876 -0.020757 -0.011125 -0.21494 -0.015356 0.034967 -0.1239 -0.024167 -0.15871 0.0082736 0.26221 -0.049612 -0.1567 0.052089 -0.075662 0.010964 -0.066963 -0.11314 -0.28877 -0.042215 0.053224 0.012865 0.048852 -0.040854 -0.031702 0.055991 0.052822 0.2929 -0.0019861 -0.020557 -0.096402 -0.0086524 0.0039811 -0.02503 -0.035045 0.092169 0.050756 0.029895 -0.072753 0.020579 -0.087316 0.12438 0.063317 -0.033816 0.16432 0.0071273 0.092582 -0.001348 0.14612 -0.038118 -0.18036 0.037967 -0.084481 -0.063387 0.013543 0.52618 0.028302 0.12999 -0.020943 -0.06069 -0.05698 -0.040118 -0.04467 
That 0.032659 0.060241 0.02137 0.0067451 -0.00049341 0.029992 0.013047 0.012159 -0.021069 0.09801 0.00030034 -0.018184 -0.015197 0.010048 0.010878 -0.00073582 -0.0069717 0.01028 -0.063708 0.0056432 0.079087 0.048995 -0.030034 0.0042219 0.00064212 0.0081581 -0.085877 -0.00053306 -0.03019 -0.013077 0.011611 -0.009212 -0.0038954 0.035084 0.037834 0.048342 -0.01641 0.0099534 0.023229 0.029023 0.010972 -0.024977 -0.00055915 0.015108 0.012716 0.031032 -0.031537 0.0049517 -0.057107 0.013727 0.0045877 -0.00071554 0.014599 -0.013365 -0.012622 -0.010923 0.15554 0.0078031 -0.011814 0.052854 -0.019683 -0.023273 -0.053811 -0.017528 -0.0088402 -0.0070264 0.020488 -0.084627 -0.0044326 -0.0093311 0.0048979 -0.049411 -0.0043875 -0.012545 0.017972 0.010145 0.0058251 -0.022313 0.071628 -0.0008138 0.014821 -0.015922 -0.084397 0.0037989 0.01737 -0.0079768 0.014019 -0.0047148 0.057725 0.011175 -0.052143 -0.0049676 -0.053612 0.048045 -0.0042991 0.1661 -0.0043491 0.011071 0.02039 -0.016764 -0.020053 0.0098546 0.014098 -0.0020223 -0.018738 0.014656 0.0093045 0.0075884 0.008074 0.0095148 -0.013196 -0.0063885 0.025395 -0.028383 -0.019385 -0.014489 -0.12996 -0.017711 0.0040839 -0.13926 0.010871 -0.013876 -0.02373 -0.030022 -0.002851 0.04254 0.0073748 -0.051843 -0.0089337 -0.015515 -0.0065994 0.0086556 -0.001029 0.042175 0.00038006 0.017846 -0.007053 -0.033141 -0.042722 0.018691 -0.016049 0.012634 -0.0067392 0.070949 -0.0071921 -0.0084154 0.014417 0.02012 0.0081343 0.004859 -0.017036 0.0067342 -0.021568 0.052694 0.011328 -0.012227 -0.089577 -0.047669 0.012068 0.0095704 -0.021348 0.018623 0.024938 -0.03053 -0.0013601 0.022315 0.010122 -0.0082682 -0.02165 -0.00030738 -0.012042 0.034396 0.0014799 0.025591 -0.0049036 0.0026234 -0.073797 0.0053939 -0.0049741 0.027068 -0.01644 -0.0018129 -0.0080658 0.036438 -0.015431 -0.023328 -0.015686 -0.05553 0.015521 -0.021684 0.0051572 -0.019334 -0.080109 0.0067687 -0.019118 0.0076976 0.008791 0.00037764 0.0086938 0.0064276 -0.085038 -0.0086422 -0.0061286 0.0052795 0.022483 0.043595 0.031862 -0.004958 -0.028524 0.0065172 -0.099021 -0.0059541 0.072668 -0.020371 0.0050412 0.018239 0.002422 -0.015097 -0.077464 0.018653 0.01277 -0.017951 -0.051487 0.028267 0.14414 0.004942 0.0078643 0.010278 0.011423 0.01463 -0.05702 -0.0094303 -0.080455 -0.011698 -0.021009 0.00048421 -0.01111 -0.017946 -0.015444 0.0094286 -0.020449 -0.0096186 0.0070903 0.024802 0.0050754 -0.065911 0.011146 0.063785 -0.00072112 -0.025949 -0.064643 -0.011854 -0.024533 0.0077106 -0.046276 -0.036185 -0.0063571 0.023445 -0.016193 0.0026441 0.01342 -0.039313 0.0064362 -0.0025831 0.0077355 0.0087866 0.0085869 0.0029212 -0.044438 0.022951 0.0098995 -0.010928 -0.069029 -0.0008061 -0.011542 -0.013619 0.029958 0.0085795 -0.0066867 -0.017081 0.020383 0.013463 -0.013916 -0.044089 0.028448 0.043471 -0.0074828 0.062063 -0.012048 -0.018762 -0.0014752 0.012894 0.064421 0.0076463 -0.01637 0.078309 0.020388 -0.024057 0.051238 -0.010941 
I 0.12265 0.13758 -0.1511 0.016203 -0.055427 0.18189 -0.14827 -0.00084638 -0.14135 -0.054655 -0.09753 -0.042509 0.0011976 0.028021 0.094223 -0.047281 -0.035838 0.15779 -0.13601 0.20393 -0.082468 0.055095 -0.059914 -0.086976 0.022967 -0.045869 0.52937 -0.025973 0.068284 0.049782 -0.089347 0.036094 0.029925 0.17239 -0.10936 -0.10797 0.063193 -0.0015101 0.031422 0.015378 -0.16267 0.28551 -0.042807 0.14682 -0.012197 -0.031903 -0.089874 0.030871 -0.24541 0.08291 0.05158 -0.074192 0.081966 0.090222 -0.15609 0.048474 0.057056 -0.030221 0.090718 0.0056816 0.0020752 -0.10346 0.09476 -0.031796 0.024356 -0.017059 0.021256 0.018162 -0.056078 -0.30083 -0.013705 -0.071567 -0.076775 -0.033709 0.05494 0.061508 0.088465 -0.17169 -0.26193 0.00035817 0.080032 -0.044856 -0.6585 0.011504 0.11952 -0.079624 -0.083063 0.010819 0.0046649 -0.032887 0.072047 0.020154 0.26087 0.17198 -0.094619 0.27725 0.037225 -0.091599 0.0093609 0.018334 -0.031668 0.072562 -0.013337 0.013991 -0.0067309 0.0041798 0.014092 0.039363 0.14057 0.05706 -0.1332 -0.013067 0.063615 0.010602 -0.081909 -0.020131 0.16527 -0.052356 0.060453 -1.2496 0.028504 -0.13615 -0.0041187 0.039939 -0.0032853 0.059303 0.14219 -0.016383 -0.15454 0.20781 -0.035294 0.049153 -0.022198 -0.21481 -0.045617 0.078901 0.040172 -0.026188 0.41413 0.054147 0.090221 -0.064792 -0.29044 -0.15438 -0.074148 -0.040828 -0.033987 -0.21105 -0.038352 0.002915 0.074231 0.040383 -0.18481 -0.6543 0.00037022 0.10989 0.037448 -0.14637 -0.083789 -0.021992 -0.072245 -0.039314 -0.11605 -0.08558 -0.052339 -0.23929 0.072578 0.026047 -0.04991 0.066278 0.041601 0.25992 0.067436 -0.019961 0.00066897 0.11441 -0.46518 0.11767 -0.038931 0.14233 -0.22135 -0.11914 0.013956 -0.55013 0.055992 -0.061109 0.048785 -0.058773 0.055366 0.027113 -0.047739 -0.076163 -0.5569 -0.028183 -0.05163 0.059363 -0.19193 -0.045061 -0.095695 0.16591 0.22161 0.024268 -0.053214 0.047793 0.022931 -0.021022 0.043849 0.011225 0.043636 0.065162 -1.3138 0.07503 0.23732 -0.0174 -0.089191 -0.0010803 0.17729 -0.060325 0.077586 -0.042776 0.13926 0.088081 0.63512 -0.030497 0.15457 0.092672 0.041795 -0.10375 0.11435 -0.021819 0.11883 -0.013766 0.13761 0.061188 -0.046851 -0.044113 -0.087455 0.054876 -0.020757 -0.011125 -0.21494 -0.015356 0.034967 -0.1239 -0.024167 -0.15871 0.0082736 0.26221 -0.049612 -0.1567 0.052089 -0.075662 0.010964 -0.066963 -0.11314 -0.28877 -0.042215 0.053224 0.012865 0.048852 -0.040854 -0.031702 0.055991 0.052822 0.2929 -0.0019861 -0.020557 -0.096402 -0.0086524 0.0039811 -0.02503 -0.035045 0.092169 0.050756 0.029895 -0.072753 0.020579 -0.087316 0.12438 0.063317 -0.033816 0.16432 0.0071273 0.092582 -0.001348 0.14612 -0.038118 -0.18036 0.037967 -0.084481 -0.063387 0.013543 0.52618 0.028302 0.12999 -0.020943 -0.06069 -0.05698 -0.040118 -0.04467 
30 0.038495 -0.20555 0.0081742 0.087608 0.023886 0.28084 -0.070053 -0.02691 0.11651 0.10336 0.050561 0.03128 0.012597 0.041588 -0.026332 -0.09102 -0.065146 0.051736 0.027929 0.22321 -0.39119 -0.11963 -0.078428 0.042675 -0.17857 0.031788 -0.14239 -0.024519 -0.048285 0.0091309 0.022032 -0.16948 -0.028904 0.058004 0.13787 0.097296 -0.028021 -0.10561 0.0085418 0.064217 -0.014103 0.0099552 0.030747 -0.030614 0.023133 0.13846 -0.05249 0.043115 -0.12704 0.063601 0.0018396 -0.012008 -0.054509 -0.025803 0.11012 -0.0010542 0.1105 0.03489 -0.079272 -0.066802 -0.012409 -0.15564 0.022852 0.027 0.0051703 -0.023814 0.0065139 -0.16878 0.012904 0.00089422 -0.04958 0.049837 -0.018191 0.022493 -0.081814 -0.053556 -0.0042097 0.011893 -0.012483 -0.0070752 -0.097521 -0.018641 -0.075622 -0.0031957 -0.014735 0.048463 -0.054187 -0.017592 0.096035 -0.011623 0.021594 -0.036152 0.051929 0.06007 -0.0011132 0.25847 -0.037516 0.038819 0.04087 -0.029636 0.0012163 -0.0016129 0.053773 0.024228 0.027919 0.059281 -0.067997 0.048735 -0.063901 0.015317 -0.071482 -0.038565 0.03629 0.051088 0.0084417 0.028874 -0.15326 0.0178 -0.061521 -0.40286 -0.015644 -0.068313 0.022528 -0.0067645 0.020436 -0.0084632 0.069323 -0.013949 0.00086294 0.074382 0.021951 -0.016477 0.02737 0.37173 0.020134 0.029742 -0.0095129 -0.031609 -0.10047 -0.083093 -0.014254 0.025998 0.026763 -0.49811 0.1245 0.00044559 -0.044337 -0.087051 -0.0036558 0.014582 -0.056806 0.067163 -0.086084 -0.13076 -0.024243 -0.051456 -0.13431 0.014011 -0.074933 -0.02089 -0.030199 0.088564 0.013358 0.0052076 -0.0019507 -0.097838 0.01668 -0.072571 0.065028 0.035907 0.049556 -0.018499 -0.021046 0.019926 -0.013958 -0.013035 -0.045402 -0.030645 -0.011598 -0.10469 0.031643 0.046063 -0.027043 -0.010256 0.047077 -0.091309 -0.051962 -0.11985 -0.029597 0.0029874 0.071553 0.025126 -0.050253 -0.0024338 -0.01796 0.02582 0.17108 -0.069039 -0.09046 0.058619 0.1202 -0.0022198 -0.015595 -0.0024454 -0.036558 -0.031969 0.021072 0.0756 0.015964 0.088017 -0.29239 -0.0082366 -0.086294 -0.03223 -0.0060042 0.054935 -0.015526 0.00051898 0.092816 -0.045976 -0.0056455 0.022625 -0.16149 -0.009123 0.096717 0.03275 0.057298 -0.034978 0.00098069 0.019028 -0.084031 0.040929 -0.022348 0.002501 -0.029465 0.063349 0.019176 0.056824 0.023213 -0.033066 -0.061386 0.053361 0.0015712 -0.021386 0.00074682 0.27329 0.034351 0.22013 -0.029922 -0.028793 0.013491 -0.020477 -0.039135 -0.11146 -0.0026014 -0.081641 -0.055846 0.013197 0.010641 -0.059004 0.0043566 0.041658 0.091637 0.012418 0.1086 -0.044402 -0.032584 0.024972 -0.12272 0.0018265 0.070163 0.042425 0.17309 0.041275 -0.026648 0.028912 0.11369 -0.029408 0.019024 0.035708 -0.29037 0.0014547 0.0117 -0.066893 0.042355 0.0034152 -0.060338 0.094797 0.068307 0.0063745 -0.045656 -0.19349 0.001147 0.040243 0.018542 -0.091298 0.084236 -0.015689 -0.051425 0.052472 
What -0.0073051 0.024658 0.086058 -0.0061637 0.029645 0.037537 0.060367 0.0084108 -0.017328 0.037424 -0.0079339 -0.021125 0.018328 -0.033096 -0.019843 -0.0080865 0.048717 0.017737 -0.047524 0.071276 0.018786 -0.017908 -0.010975 0.017336 0.027385 -0.0017919 -0.039559 -0.00019847 -0.013273 0.0027365 -0.032533 0.0041171 0.010532 0.032826 -0.030501 0.027205 0.02229 0.018393 0.017567 0.051184 0.04981 -0.034035 0.0048809 0.030353 -0.011627 0.048544 0.010398 -0.035779 -0.065178 0.003382 -0.017461 -0.017402 0.034572 -0.025723 -0.03284 -0.016117 0.090688 -0.018042 0.0018755 0.046917 -0.0033955 -0.017094 -0.088626 -0.0072155 3.6876e-05 0.02261 0.010746 -0.13203 0.0065676 -0.029844 0.029271 -0.0090255 -0.010466 -0.0069038 0.037078 0.036099 -0.018417 -0.0074657 0.12987 0.0053152 0.019707 -0.024346 -0.10852 0.014503 0.0019377 0.011783 0.019623 -0.005266 0.071753 -0.0016514 -0.039537 -0.014702 -0.035803 0.070511 -0.060774 0.16062 -0.013715 7.0748e-05 0.0080524 -0.040325 0.0062065 0.014429 0.040999 0.022749 -0.040905 0.023413 -0.013566 0.017392 -0.048227 0.017107 -0.01649 -0.019805 -0.00011472 -0.029134 -0.0082756 -0.031424 -0.094555 -0.018748 0.027819 -0.1234 0.012736 -0.014811 -0.0097513 -0.02793 -0.039337 0.033787 -0.0011261 -0.0024803 0.014573 -0.0039344 0.0074708 0.016728 -0.027284 0.041502 0.0038478 0.0164 -0.031097 -0.044791 -0.0066633 -0.0046404 0.039183 -0.01598 -0.031283 0.10697 -0.0015259 -0.014892 0.008391 0.030056 0.041037 0.0010746 -0.0062094 -0.014716 -0.0040941 0.0097781 0.008918 -0.010565 -0.19667 -0.058042 0.021783 -0.021871 -0.024318 0.074109 0.0026476 0.0037915 0.0086446 0.06617 0.020239 -0.018914 -0.02323 -3.7916e-05 0.033951 0.065283 0.03037 -0.030207 -0.010506 -0.014701 -0.080619 -0.014363 0.058736 0.02184 -0.026243 -0.025306 -0.018798 0.039026 -0.035832 -0.029585 -0.011337 -0.11425 0.029618 0.013538 0.051798 -0.048367 -0.04313 0.032331 -0.014623 0.031982 -0.0081281 0.015647 0.0097695 0.029736 -0.067402 0.0076311 0.022167 0.018441 0.016983 0.069457 0.0082347 0.018955 -0.059195 0.026419 -0.10588 -0.0049773 0.11222 -0.01734 0.01718 0.019625 -0.0094732 0.0021972 -0.080401 -0.0011098 -0.022433 -0.009087 -0.035477 0.0085628 0.094727 0.011961 0.046983 0.029264 0.012862 -0.015021 -0.040664 0.01047 -0.02972 -0.020182 -0.021921 -0.029194 -0.021175 0.037687 -0.028507 0.03704 0.0011017 -0.010708 0.02781 0.025869 -0.010996 -0.022586 0.007883 0.1043 -0.0318 -0.010908 -0.064597 0.00074228 0.0074771 -0.0094689 -0.041676 -0.0034439 0.012092 0.036146 -0.011068 -0.0012462 0.033351 -0.0046039 0.0039505 0.0040553 0.014157 -0.0032356 0.010762 -0.0045483 -0.01934 0.040491 -0.093424 0.017682 -0.050087 0.01748 -0.0041891 0.0040446 -0.031545 -0.0086066 -0.019915 -0.029459 0.064579 -0.0022685 0.0050409 -0.062032 0.013269 0.11051 0.021919 0.064762 0.0095396 0.014933 0.0079945 -0.0072217 0.068885 -0.030246 -0.031908 0.10353 -0.027611 0.015919 0.03422 -0.024364 
What -0.0073051 0.024658 0.086058 -0.0061637 0.029645 0.037537 0.060367 0.0084108 -0.017328 0.037424 -0.0079339 -0.021125 0.018328 -0.033096 -0.019843 -0.0080865 0.048717 0.017737 -0.047524 0.071276 0.018786 -0.017908 -0.010975 0.017336 0.027385 -0.0017919 -0.039559 -0.00019847 -0.013273 0.0027365 -0.032533 0.0041171 0.010532 0.032826 -0.030501 0.027205 0.02229 0.018393 0.017567 0.051184 0.04981 -0.034035 0.0048809 0.030353 -0.011627 0.048544 0.010398 -0.035779 -0.065178 0.003382 -0.017461 -0.017402 0.034572 -0.025723 -0.03284 -0.016117 0.090688 -0.018042 0.0018755 0.046917 -0.0033955 -0.017094 -0.088626 -0.0072155 3.6876e-05 0.02261 0.010746 -0.13203 0.0065676 -0.029844 0.029271 -0.0090255 -0.010466 -0.0069038 0.037078 0.036099 -0.018417 -0.0074657 0.12987 0.0053152 0.019707 -0.024346 -0.10852 0.014503 0.0019377 0.011783 0.019623 -0.005266 0.071753 -0.0016514 -0.039537 -0.014702 -0.035803 0.070511 -0.060774 0.16062 -0.013715 7.0748e-05 0.0080524 -0.040325 0.0062065 0.014429 0.040999 0.022749 -0.040905 0.023413 -0.013566 0.017392 -0.048227 0.017107 -0.01649 -0.019805 -0.00011472 -0.029134 -0.0082756 -0.031424 -0.094555 -0.018748 0.027819 -0.1234 0.012736 -0.014811 -0.0097513 -0.02793 -0.039337 0.033787 -0.0011261 -0.0024803 0.014573 -0.0039344 0.0074708 0.016728 -0.027284 0.041502 0.0038478 0.0164 -0.031097 -0.044791 -0.0066633 -0.0046404 0.039183 -0.01598 -0.031283 0.10697 -0.0015259 -0.014892 0.008391 0.030056 0.041037 0.0010746 -0.0062094 -0.014716 -0.0040941 0.0097781 0.008918 -0.010565 -0.19667 -0.058042 0.021783 -0.021871 -0.024318 0.074109 0.0026476 0.0037915 0.0086446 0.06617 0.020239 -0.018914 -0.02323 -3.7916e-05 0.033951 0.065283 0.03037 -0.030207 -0.010506 -0.014701 -0.080619 -0.014363 0.058736 0.02184 -0.026243 -0.025306 -0.018798 0.039026 -0.035832 -0.029585 -0.011337 -0.11425 0.029618 0.013538 0.051798 -0.048367 -0.04313 0.032331 -0.014623 0.031982 -0.0081281 0.015647 0.0097695 0.029736 -0.067402 0.0076311 0.022167 0.018441 0.016983 0.069457 0.0082347 0.018955 -0.059195 0.026419 -0.10588 -0.0049773 0.11222 -0.01734 0.01718 0.019625 -0.0094732 0.0021972 -0.080401 -0.0011098 -0.022433 -0.009087 -0.035477 0.0085628 0.094727 0.011961 0.046983 0.029264 0.012862 -0.015021 -0.040664 0.01047 -0.02972 -0.020182 -0.021921 -0.029194 -0.021175 0.037687 -0.028507 0.03704 0.0011017 -0.010708 0.02781 0.025869 -0.010996 -0.022586 0.007883 0.1043 -0.0318 -0.010908 -0.064597 0.00074228 0.0074771 -0.0094689 -0.041676 -0.0034439 0.012092 0.036146 -0.011068 -0.0012462 0.033351 -0.0046039 0.0039505 0.0040553 0.014157 -0.0032356 0.010762 -0.0045483 -0.01934 0.040491 -0.093424 0.017682 -0.050087 0.01748 -0.0041891 0.0040446 -0.031545 -0.0086066 -0.019915 -0.029459 0.064579 -0.0022685 0.0050409 -0.062032 0.013269 0.11051 0.021919 0.064762 0.0095396 0.014933 0.0079945 -0.0072217 0.068885 -0.030246 -0.031908 0.10353 -0.027611 0.015919 0.03422 -0.024364 
What -0.0073051 0.024658 0.086058 -0.0061637 0.029645 0.037537 0.060367 0.0084108 -0.017328 0.037424 -0.0079339 -0.021125 0.018328 -0.033096 -0.019843 -0.0080865 0.048717 0.017737 -0.047524 0.071276 0.018786 -0.017908 -0.010975 0.017336 0.027385 -0.0017919 -0.039559 -0.00019847 -0.013273 0.0027365 -0.032533 0.0041171 0.010532 0.032826 -0.030501 0.027205 0.02229 0.018393 0.017567 0.051184 0.04981 -0.034035 0.0048809 0.030353 -0.011627 0.048544 0.010398 -0.035779 -0.065178 0.003382 -0.017461 -0.017402 0.034572 -0.025723 -0.03284 -0.016117 0.090688 -0.018042 0.0018755 0.046917 -0.0033955 -0.017094 -0.088626 -0.0072155 3.6876e-05 0.02261 0.010746 -0.13203 0.0065676 -0.029844 0.029271 -0.0090255 -0.010466 -0.0069038 0.037078 0.036099 -0.018417 -0.0074657 0.12987 0.0053152 0.019707 -0.024346 -0.10852 0.014503 0.0019377 0.011783 0.019623 -0.005266 0.071753 -0.0016514 -0.039537 -0.014702 -0.035803 0.070511 -0.060774 0.16062 -0.013715 7.0748e-05 0.0080524 -0.040325 0.0062065 0.014429 0.040999 0.022749 -0.040905 0.023413 -0.013566 0.017392 -0.048227 0.017107 -0.01649 -0.019805 -0.00011472 -0.029134 -0.0082756 -0.031424 -0.094555 -0.018748 0.027819 -0.1234 0.012736 -0.014811 -0.0097513 -0.02793 -0.039337 0.033787 -0.0011261 -0.0024803 0.014573 -0.0039344 0.0074708 0.016728 -0.027284 0.041502 0.0038478 0.0164 -0.031097 -0.044791 -0.0066633 -0.0046404 0.039183 -0.01598 -0.031283 0.10697 -0.0015259 -0.014892 0.008391 0.030056 0.041037 0.0010746 -0.0062094 -0.014716 -0.0040941 0.0097781 0.008918 -0.010565 -0.19667 -0.058042 0.021783 -0.021871 -0.024318 0.074109 0.0026476 0.0037915 0.0086446 0.06617 0.020239 -0.018914 -0.02323 -3.7916e-05 0.033951 0.065283 0.03037 -0.030207 -0.010506 -0.014701 -0.080619 -0.014363 0.058736 0.02184 -0.026243 -0.025306 -0.018798 0.039026 -0.035832 -0.029585 -0.011337 -0.11425 0.029618 0.013538 0.051798 -0.048367 -0.04313 0.032331 -0.014623 0.031982 -0.0081281 0.015647 0.0097695 0.029736 -0.067402 0.0076311 0.022167 0.018441 0.016983 0.069457 0.0082347 0.018955 -0.059195 0.026419 -0.10588 -0.0049773 0.11222 -0.01734 0.01718 0.019625 -0.0094732 0.0021972 -0.080401 -0.0011098 -0.022433 -0.009087 -0.035477 0.0085628 0.094727 0.011961 0.046983 0.029264 0.012862 -0.015021 -0.040664 0.01047 -0.02972 -0.020182 -0.021921 -0.029194 -0.021175 0.037687 -0.028507 0.03704 0.0011017 -0.010708 0.02781 0.025869 -0.010996 -0.022586 0.007883 0.1043 -0.0318 -0.010908 -0.064597 0.00074228 0.0074771 -0.0094689 -0.041676 -0.0034439 0.012092 0.036146 -0.011068 -0.0012462 0.033351 -0.0046039 0.0039505 0.0040553 0.014157 -0.0032356 0.010762 -0.0045483 -0.01934 0.040491 -0.093424 0.017682 -0.050087 0.01748 -0.0041891 0.0040446 -0.031545 -0.0086066 -0.019915 -0.029459 0.064579 -0.0022685 0.0050409 -0.062032 0.013269 0.11051 0.021919 0.064762 0.0095396 0.014933 0.0079945 -0.0072217 0.068885 -0.030246 -0.031908 0.10353 -0.027611 0.015919 0.03422 -0.024364 
Me 0.018182 -0.026901 -0.036596 0.021827 0.1567 0.041243 0.063852 0.038965 0.010748 -0.22656 -0.21721 -0.076866 -0.013714 -0.060187 0.086034 -0.09645 -0.0074785 0.039625 -0.094749 0.035899 -0.091893 0.075135 0.019359 0.0081287 -0.24968 -0.0090952 0.00030036 -0.023783 0.069623 -0.0030818 -0.062261 -0.11287 0.0055427 -0.041092 -0.022445 -0.0040555 0.12633 -0.039397 0.060487 -0.040094 -0.023493 -0.10515 0.0064031 -0.0017134 -0.059465 0.17808 0.1525 0.028817 -0.25255 -0.14311 0.030785 -0.057087 -0.0024421 -0.0032965 0.19847 -0.051683 0.10456 -0.0072857 0.39715 0.12417 0.034011 -0.0090938 -0.17522 -0.011786 0.078382 0.014836 0.012773 0.048969 0.0092208 -0.03307 0.031792 0.0067683 -0.010249 -0.0065799 -0.062707 0.10665 -0.022421 -0.029969 -0.00011678 0.0082347 0.054295 0.013945 0.0013147 0.043382 0.00039792 -0.067849 -0.033634 -0.024003 0.20692 0.020294 -0.16975 0.054878 0.061795 0.0072808 -0.01362 0.28655 0.0014614 -0.02493 0.035286 0.059887 0.040224 -0.065884 -0.014694 0.069599 -0.058951 -0.047855 0.013835 0.14994 -0.30153 0.023753 0.01114 -0.11201 0.062486 -0.041105 0.031354 -0.024831 -0.0080191 0.037996 0.012435 -0.35183 0.070329 -0.046054 0.022663 -0.019869 -0.014309 0.14066 0.10102 -0.083167 -0.12348 -0.08493 0.01296 0.012154 -0.02342 0.0099097 0.026416 0.027952 -0.064007 -0.029192 -0.032591 0.048502 -0.053172 -0.017632 0.025475 0.053022 -0.024984 0.0042273 -0.051394 0.036396 0.00021064 0.0043889 0.070762 0.066504 -0.12547 0.20446 0.070261 0.029276 -0.049368 -0.045816 0.010194 -0.0015343 -0.02129 -0.05926 0.12197 -0.049636 -0.12103 -0.056895 0.0061817 -0.070061 0.015896 -0.1347 0.041151 0.15948 -0.037616 0.050993 -0.00023352 0.10616 -0.17308 0.082949 -0.022114 0.044205 0.067533 0.013478 -0.10097 -0.028598 -0.048437 0.031739 -0.11776 0.042398 0.01697 -0.10444 -0.0455 -0.015653 -0.093605 -0.040931 -0.062858 -0.029427 0.024292 -0.0031631 -0.033419 0.14211 -0.2918 -0.050684 -0.081087 0.028758 -0.0068065 -0.05002 -0.049533 0.041784 0.0008169 -0.028115 -0.25533 0.061696 -0.044084 -0.21838 -0.063324 0.033964 -0.0018454 -0.058098 0.0097986 0.020717 0.044663 0.028431 0.078618 -0.037775 0.35095 -0.0472 -0.074255 0.13245 0.11084 0.04483 -0.083834 0.0049332 -0.020626 0.11198 -0.039075 -0.1203 -0.02331 -0.041048 -0.018116 -0.045612 0.0013067 0.042446 0.096298 0.024859 0.00091699 0.065769 -0.029921 -0.014312 -0.068134 -0.048007 0.065284 -0.041225 0.0067563 -0.0089682 0.02398 -0.030699 -0.03396 0.25446 0.049187 0.058212 0.063591 -0.034708 -0.074246 -0.093628 -0.0066323 0.047444 0.030847 -0.13249 -0.05711 0.013643 -0.099032 0.0036902 0.085688 -0.050712 -0.034915 0.062219 0.050247 -0.040678 -0.040909 -0.136 0.06463 -0.051667 -0.076301 -0.055275 0.04015 0.050916 -0.021564 0.085257 -0.021722 -0.064355 0.012769 -0.017781 -0.0080743 0.03855 0.0010558 -0.086901 -0.014922 0.082823 -0.037564 -0.036529 
ccan 0.014252 -0.019819 0.10667 -0.015966 0.01516 -0.085324 0.11263 0.0081946 -0.016144 0.069398 0.027744 -0.039222 -0.061184 0.034707 -0.079408 -0.016068 0.030726 0.0037169 -0.003017 0.028477 -0.015124 0.016373 -0.092889 -0.0099849 0.064157 -0.011186 0.09759 -0.044992 0.012578 0.048506 0.030082 -0.024762 -0.032838 0.025761 0.049452 -0.022251 -0.028995 0.039205 0.012694 0.038409 0.074979 -0.11316 0.050383 0.0021048 0.032024 0.038148 -0.053249 -0.033177 -0.041358 0.028688 -0.010751 0.0082265 0.025459 0.010519 -0.15748 0.01291 0.0019232 -0.045738 -0.055025 -0.029127 0.018317 0.0047695 0.061448 -0.052813 0.029554 -0.072977 -0.0082979 0.025959 0.070185 -0.058475 0.037141 -0.095772 -0.046801 -0.016035 0.047037 0.088501 0.003346 0.018481 0.042252 0.049701 0.081076 0.075761 -0.073385 0.02455 0.0097451 -0.019834 -0.045031 0.010328 -0.037765 -0.037687 0.028673 -0.058827 -0.091438 -0.1044 -0.082454 0.11741 0.0024301 -0.029006 -0.020042 0.017212 -0.030238 0.033345 -0.044153 0.01417 -0.038041 -0.017906 0.038684 0.088806 0.045233 -0.012141 -0.014671 -0.0077912 -0.011573 -0.022221 0.0090567 -0.022662 -0.073649 0.14584 0.010594 -0.048336 0.068009 -0.038835 -0.054353 -0.056943 -0.0036036 -0.0065309 -0.01416 0.04079 -0.026724 0.028135 -0.048768 0.036304 -0.037924 -0.014191 -0.066245 -0.025305 0.074953 0.033235 -0.047529 0.030543 0.030371 -0.03301 -0.03379 -0.068254 0.027123 -0.0049321 -0.0022466 -0.0032946 0.0063007 0.0055517 0.0054053 -0.058905 0.099602 -0.071459 -0.022466 0.0071071 -0.044763 -0.027165 0.025521 0.087177 0.10848 -0.044434 -0.047667 -0.023759 -0.012866 0.035457 -0.0043481 -0.0030755 0.037232 -0.033374 -0.035171 0.088677 0.059989 0.055878 -0.042636 0.10807 0.019239 -0.031482 0.090169 -0.0015905 -0.10545 0.062157 0.027815 -0.15125 -0.014164 -0.0098418 -0.044128 0.040264 -0.051523 -0.005032 0.05035 0.035951 -0.20871 -0.056084 -0.055813 -0.0033858 0.078409 0.015648 0.02959 -0.018452 -0.043614 0.09259 0.02304 -0.0079231 -0.09532 0.027998 0.0032164 0.10524 0.04629 -0.044397 -0.2032 0.031556 0.056547 0.060121 -0.033296 7.0194e-05 -0.0034247 -0.044074 -0.053802 -0.055586 -0.0028785 -0.014887 0.03318 0.0071092 0.084854 -0.04735 0.013107 -0.05815 -0.016615 -0.064952 -0.064782 -0.0038745 0.03928 -0.012763 0.0050071 -0.036069 -0.035363 -0.11542 0.063781 -0.020207 -0.015895 -0.020266 0.082239 -0.054819 -0.012341 -0.012141 0.016916 0.0071274 0.060528 0.021511 0.021487 -0.086904 -0.089847 0.074767 0.078674 -0.090823 0.056943 0.0028487 0.046246 -0.033484 0.013815 -0.020432 0.0031086 -0.055629 -0.018178 0.04669 0.020918 -0.096857 -0.061191 0.012206 -0.01847 -0.037517 -0.038152 -0.050817 -0.0087192 0.07043 -0.0084929 -0.028043 0.015224 0.062168 -0.0086237 -0.034513 -0.033391 -0.0033008 -0.070297 0.024902 0.013917 -0.10165 0.099004 0.05151 0.092669 0.014108 0.15002 -0.043457 0.13192 0.005199 -0.046347 0.018527 -0.072951 0.044181 
What -0.0073051 0.024658 0.086058 -0.0061637 0.029645 0.037537 0.060367 0.0084108 -0.017328 0.037424 -0.0079339 -0.021125 0.018328 -0.033096 -0.019843 -0.0080865 0.048717 0.017737 -0.047524 0.071276 0.018786 -0.017908 -0.010975 0.017336 0.027385 -0.0017919 -0.039559 -0.00019847 -0.013273 0.0027365 -0.032533 0.0041171 0.010532 0.032826 -0.030501 0.027205 0.02229 0.018393 0.017567 0.051184 0.04981 -0.034035 0.0048809 0.030353 -0.011627 0.048544 0.010398 -0.035779 -0.065178 0.003382 -0.017461 -0.017402 0.034572 -0.025723 -0.03284 -0.016117 0.090688 -0.018042 0.0018755 0.046917 -0.0033955 -0.017094 -0.088626 -0.0072155 3.6876e-05 0.02261 0.010746 -0.13203 0.0065676 -0.029844 0.029271 -0.0090255 -0.010466 -0.0069038 0.037078 0.036099 -0.018417 -0.0074657 0.12987 0.0053152 0.019707 -0.024346 -0.10852 0.014503 0.0019377 0.011783 0.019623 -0.005266 0.071753 -0.0016514 -0.039537 -0.014702 -0.035803 0.070511 -0.060774 0.16062 -0.013715 7.0748e-05 0.0080524 -0.040325 0.0062065 0.014429 0.040999 0.022749 -0.040905 0.023413 -0.013566 0.017392 -0.048227 0.017107 -0.01649 -0.019805 -0.00011472 -0.029134 -0.0082756 -0.031424 -0.094555 -0.018748 0.027819 -0.1234 0.012736 -0.014811 -0.0097513 -0.02793 -0.039337 0.033787 -0.0011261 -0.0024803 0.014573 -0.0039344 0.0074708 0.016728 -0.027284 0.041502 0.0038478 0.0164 -0.031097 -0.044791 -0.0066633 -0.0046404 0.039183 -0.01598 -0.031283 0.10697 -0.0015259 -0.014892 0.008391 0.030056 0.041037 0.0010746 -0.0062094 -0.014716 -0.0040941 0.0097781 0.008918 -0.010565 -0.19667 -0.058042 0.021783 -0.021871 -0.024318 0.074109 0.0026476 0.0037915 0.0086446 0.06617 0.020239 -0.018914 -0.02323 -3.7916e-05 0.033951 0.065283 0.03037 -0.030207 -0.010506 -0.014701 -0.080619 -0.014363 0.058736 0.02184 -0.026243 -0.025306 -0.018798 0.039026 -0.035832 -0.029585 -0.011337 -0.11425 0.029618 0.013538 0.051798 -0.048367 -0.04313 0.032331 -0.014623 0.031982 -0.0081281 0.015647 0.0097695 0.029736 -0.067402 0.0076311 0.022167 0.018441 0.016983 0.069457 0.0082347 0.018955 -0.059195 0.026419 -0.10588 -0.0049773 0.11222 -0.01734 0.01718 0.019625 -0.0094732 0.0021972 -0.080401 -0.0011098 -0.022433 -0.009087 -0.035477 0.0085628 0.094727 0.011961 0.046983 0.029264 0.012862 -0.015021 -0.040664 0.01047 -0.02972 -0.020182 -0.021921 -0.029194 -0.021175 0.037687 -0.028507 0.03704 0.0011017 -0.010708 0.02781 0.025869 -0.010996 -0.022586 0.007883 0.1043 -0.0318 -0.010908 -0.064597 0.00074228 0.0074771 -0.0094689 -0.041676 -0.0034439 0.012092 0.036146 -0.011068 -0.0012462 0.033351 -0.0046039 0.0039505 0.0040553 0.014157 -0.0032356 0.010762 -0.0045483 -0.01934 0.040491 -0.093424 0.017682 -0.050087 0.01748 -0.0041891 0.0040446 -0.031545 -0.0086066 -0.019915 -0.029459 0.064579 -0.0022685 0.0050409 -0.062032 0.013269 0.11051 0.021919 0.064762 0.0095396 0.014933 0.0079945 -0.0072217 0.068885 -0.030246 -0.031908 0.10353 -0.027611 0.015919 0.03422 -0.024364 
No 0.0038878 -0.040955 0.15756 -0.074598 0.025385 0.1107 0.019896 0.011736 0.032264 0.0071234 -0.036144 -0.054206 -0.055519 -0.052741 0.025295 -0.068506 0.018965 0.048651 -0.12282 -0.025538 -0.0607 0.030034 -0.0090856 -0.10494 -0.10534 0.027298 0.15734 0.016127 -0.035169 -0.0061021 0.0010609 -0.026635 -0.010924 0.0074753 0.17423 0.12189 -0.013434 -0.015488 0.027693 0.00017955 0.054821 -0.18898 -0.0089532 0.040887 0.046774 0.10878 -0.020926 0.059932 -0.17027 0.045711 0.049181 -0.023006 -0.032366 0.034225 -0.014952 -0.035514 0.070758 0.0022675 -0.0040558 0.066106 -0.029944 0.073873 -0.14796 0.019369 -0.014342 0.019161 0.013111 -0.21462 0.060251 0.057142 0.047708 0.021131 0.00090727 0.010159 0.0014259 -0.0058926 -0.030214 -0.0052835 0.032772 0.033461 0.088655 -0.039013 -0.27372 0.0057949 -0.055398 0.012529 -0.028818 -0.043795 -0.030693 0.088238 -0.11927 -0.016798 -0.055003 0.18325 0.012383 0.29595 0.055868 0.035947 -0.045436 0.10321 0.093004 0.051354 0.077389 0.041946 0.082582 -0.049056 0.055117 0.084054 -0.063052 -0.048664 -0.046234 -0.091006 -0.04978 -0.21701 -0.0084324 -0.039504 -0.073707 -0.011094 0.018033 -0.30092 0.031286 -0.044393 -0.053485 -0.03625 -0.063014 -0.022224 0.06962 -0.23245 0.033417 -0.022816 0.011827 0.058074 0.058668 0.11236 -0.0063642 -0.025524 0.064243 -0.025378 0.048816 0.14258 0.0096959 -0.019224 -0.095723 0.028388 -0.010748 -0.088875 -0.011435 -0.024104 0.0042768 0.031728 0.098634 0.0059609 -0.036397 0.013457 0.026188 -0.0094095 -0.10699 -0.10536 -0.021936 -0.016044 -0.067205 0.039565 0.08762 -0.056417 -0.071444 0.070545 -0.032031 -0.013752 -0.049495 -0.00078302 0.036969 0.016295 -0.0084934 0.0058095 -0.023443 -0.016485 -0.18957 -0.00026878 -0.14944 0.013764 0.033174 0.023629 -0.060519 0.03894 0.1019 -0.0037643 -0.013792 -0.18426 0.0012398 0.015252 -0.0088879 -0.057484 -0.047178 0.068636 -0.018928 0.012791 -0.05702 0.037473 0.0020947 0.10296 -0.11067 -0.035539 -0.014911 -0.019035 -0.012748 0.1336 -0.014901 -0.0023382 -0.011857 0.033897 -0.24622 -0.013891 0.079847 -0.057675 0.043326 -0.037225 0.12928 -0.01259 0.1034 0.021354 -0.0076821 0.013948 -0.11691 0.019682 0.33443 -0.021405 0.028822 -0.076118 -0.051618 0.034993 0.042756 0.087466 -0.037579 0.063135 -0.042022 -0.14034 0.0066111 0.038739 -0.0094061 0.052716 -0.042795 0.024527 0.098438 0.012584 0.016647 -0.069801 0.00052961 0.29217 -0.068155 0.026719 -0.12445 -0.036178 -0.00048736 0.020734 -0.1943 -0.026826 0.048591 0.075578 0.054191 -0.017349 0.067462 -0.070021 -0.042527 -0.091509 0.0068557 0.0046464 -0.030241 0.011228 0.0049853 -0.018385 0.0063083 0.050035 0.014623 0.038398 0.0056001 0.065474 -0.071344 0.17981 -0.0049517 -0.027194 0.077807 -0.014007 -0.019036 -0.058314 0.013687 0.15185 0.024292 0.017841 0.038432 0.0066348 -0.050755 -0.030594 0.045563 -0.076756 -0.057246 0.068938 -0.17781 -0.059277 -0.10474 0.081076 
phobo -0.022557 -0.083411 0.1147 0.038277 -0.033162 -0.10164 0.072888 0.0036505 0.06407 -0.05492 -0.010521 -0.008111 0.0080181 0.0051259 -0.012981 -0.011238 -0.010902 -0.0053109 -0.012319 0.081087 -0.011685 0.010188 0.011247 0.018188 -0.074107 -0.00077457 -0.10644 0.017014 -0.0032426 0.012367 -0.027859 -0.016332 0.0024454 -0.0060075 0.007465 -0.0096603 0.0099182 -0.010222 -0.0037695 0.00073275 0.0059574 -0.10846 0.018068 -0.0018799 -0.022972 0.12886 -0.014069 -0.024251 -0.046876 -0.01611 -0.020818 -0.043286 0.019152 -0.00017342 -0.043392 0.01411 0.01268 0.0022397 -0.031406 -0.022685 -0.0033693 -0.0046227 -0.070426 -0.0078264 -0.0012651 -0.016044 -0.0083517 -0.045717 -0.005291 0.0040676 0.0027191 0.023537 0.010343 -0.0073138 -0.024318 0.024135 -0.014223 -0.012138 0.054804 -0.0071218 0.013013 0.0088735 -0.0016038 0.018568 -0.0024409 0.016598 -0.025045 -0.018896 0.0025574 -0.0069686 -0.02669 -0.0017942 -0.063167 0.02965 -0.00767 0.1858 0.0031854 -0.012207 -0.001201 0.015497 -0.028621 0.0075278 0.0044842 -0.00085452 -0.02057 -0.005376 0.025493 -0.0086895 -0.066629 0.0080694 -0.0076925 -0.0024901 0.015496 0.0038319 0.023611 -0.0085342 -0.074831 0.0092175 0.019208 -0.046994 -0.023747 -0.017584 -0.0080215 -0.0049433 0.037295 0.0073174 -0.01132 -0.0014147 0.016245 -0.079984 -0.0032178 0.0069749 -0.034631 0.10767 0.0061286 -0.0045924 0.027364 -0.0047151 0.0067204 0.0054571 0.00070083 0.024545 -0.0042473 -0.081581 -0.034919 -0.013198 -0.0025296 -0.068149 -0.018206 -0.0049351 0.018834 -0.0084242 0.0057547 -0.027865 0.0029564 0.0044191 0.027732 -0.051624 0.064236 0.010815 0.0085948 -0.0069162 0.019526 -0.012059 -0.022576 0.13183 -0.025406 0.026662 0.0007736 0.012884 0.0057059 0.0079512 0.0010836 -0.0021823 0.0053317 -0.0018044 -0.013331 0.017616 0.016472 0.010446 -0.0023502 -0.0074072 -0.00088684 -0.17156 -0.050622 0.0017546 0.04506 0.058615 0.027589 -0.0013488 -0.027149 0.0087638 -0.083058 0.014918 0.0092371 0.0081517 0.062377 -0.0056229 -0.00063897 -0.017995 -0.062698 0.0041481 -0.0086854 -0.0084996 0.0060422 0.030476 0.0026814 0.021854 -0.008595 0.0096323 0.0043675 -0.0071407 0.083966 -0.030064 -0.0089565 -0.00071043 0.012101 0.0012707 -0.086191 0.0015213 0.014008 -0.015623 -0.0065405 0.0010435 0.11875 -0.0048334 0.004743 0.0013325 0.0025986 0.0018732 -0.026164 -0.013242 0.020491 0.0067742 0.0083715 0.022324 0.028967 -0.004688 -0.002831 0.0017273 0.036786 0.022317 -0.032996 -0.022866 -0.019794 0.043823 -0.013093 -0.061548 -0.00059647 -0.027317 0.094218 0.024625 0.0035959 -0.001922 0.025735 -0.022919 -0.017689 -0.018015 -0.015026 0.015187 0.012641 -0.01422 -0.015076 -0.002285 0.0036055 -0.00059998 -0.0077002 -0.0087597 0.010217 0.023748 0.024753 -0.0075671 -0.1071 0.00014828 0.008891 0.0026663 -0.015766 0.0013726 -0.0031348 0.014294 -0.077671 -0.010278 -0.00041917 0.017236 0.0066765 0.0060114 -0.03139 -0.10973 -0.00052876 -0.014931 0.0090537 0.0060499 -0.11678 -0.02566 0.0099748 0.067331 0.059115 -0.0111 -0.032407 0.0055405 
phewbedo -0.0065348 -0.070468 0.0039972 -0.022634 0.010299 -0.06236 0.0067108 -0.020574 0.070471 -0.0042765 -0.0089107 0.0059318 -0.0081358 -0.0090737 0.00015384 -0.021875 -0.0033532 -0.0050791 0.0070159 0.0087856 -0.0085894 0.013124 -0.0047205 0.0082058 -0.01664 0.020882 -0.050136 -0.0016053 0.0073815 -0.004774 0.019874 0.016605 -0.010197 -0.015392 0.022523 0.0053083 -0.010941 0.0024105 -0.0028507 0.028961 0.021396 -0.0069011 0.0081638 -0.026921 0.0094103 0.059726 -0.011425 -0.0086607 -0.025697 0.0018935 -0.00081434 0.020915 -0.0021064 0.0008026 -0.0041328 -0.0082034 -0.033109 0.0090128 0.029406 0.0033949 0.0018609 -0.022566 -0.058739 -0.0055837 -0.024712 0.015243 0.020475 -0.096479 0.014953 0.010638 0.032301 -0.0056463 -0.015325 -0.0012929 -0.0019379 0.012233 -0.028941 0.018748 0.038353 -0.027646 0.019477 0.012104 -0.00021039 0.015592 0.0017971 0.02575 -7.9417e-05 0.00232 0.012446 -0.011609 -0.028037 -0.0034501 -0.057275 0.040188 0.019834 0.11729 -0.015915 -0.0097986 0.032137 0.012637 -0.024247 0.011302 -0.011458 0.011058 -0.041522 -6.4842e-05 0.005913 0.014134 -0.036075 0.0054794 -0.0076725 -0.010242 0.005591 0.020736 0.014518 -0.0012437 0.011831 0.00053978 0.0048213 -0.011298 -0.029324 0.0082816 -0.011798 0.0015621 0.0096684 0.035198 -0.026411 -0.0075001 0.022651 -0.042112 0.0019605 0.014307 -0.024382 0.067041 0.016159 0.0010578 -0.0015193 -0.020111 0.0094814 -0.0037591 0.0052333 0.043106 0.051427 -0.041741 -0.025281 0.0098409 -0.013652 -0.0102 0.0079571 -0.0306 0.016287 -0.014625 -0.011652 -0.031666 -0.029084 0.027594 0.048042 0.0003846 0.029188 0.032105 -0.0023588 0.0047405 -0.03596 -0.035067 -0.019582 0.0026233 -0.0022862 0.014721 0.01686 -0.0085327 -0.0047394 0.012939 -0.0026069 0.023672 -0.007604 0.0097599 0.027214 0.012386 0.018503 0.0054574 0.011338 0.011344 0.0090375 -0.068059 -0.039667 0.0023064 -0.0011378 0.020274 0.0074624 0.011306 -0.014417 -0.00010187 -0.019254 0.012008 0.0041762 -0.0026803 0.0092538 0.0033094 -0.0046119 -0.0051022 -0.030872 0.015671 -0.0076513 -0.01016 0.0057841 0.031892 0.018733 0.0080299 0.0030104 -0.0082801 -0.01239 0.0047497 0.041855 -0.025308 -0.011384 -0.018868 0.0077567 -0.018941 -0.028661 0.030761 -0.017903 0.023878 -0.01361 0.0080233 0.068739 -0.010781 0.0012138 -0.022882 0.002203 -0.035068 -0.045202 -0.0078779 0.042136 0.0058105 0.0093626 -0.0091779 -0.01042 -0.0076645 -0.0081069 -0.022096 -0.0062003 -0.010724 -0.0032474 -0.0019484 0.010601 0.022122 -0.0153 -0.065716 -0.002436 0.013076 0.02591 -0.015358 -0.013777 0.028178 0.018674 0.019881 0.0097043 0.01655 -0.021641 -0.028645 -0.0045728 -0.011607 0.025307 -0.02175 0.037263 0.0017121 -0.019519 -0.02468 0.0039105 0.0092942 0.029368 -0.011908 -0.012562 -0.033983 0.012089 -0.016107 -0.022445 0.028469 0.013886 0.015585 -0.06059 0.0020589 -0.01978 -0.0046497 -0.014211 -0.0036577 -0.030195 -0.015282 -0.0011665 0.032362 0.057867 0.014122 -0.034707 0.0076288 0.028082 0.02224 0.035549 -0.0046108 -0.015733 -0.0089588 
phaybobo -0.037751 -0.012799 0.033548 0.011035 -0.0043875 -0.017163 -0.032025 -0.014363 0.022383 -0.074974 -0.031705 0.012281 0.00098559 0.02333 -0.018331 0.0046635 0.00094087 -0.028062 -0.025371 -0.018081 -0.039474 0.013491 0.0068705 0.018017 -0.062477 -0.013518 -0.063929 0.024395 0.0040942 -0.035681 0.0069467 -0.016083 0.01285 -0.0062485 0.0023513 0.011427 0.017116 -0.0058686 -0.0054098 0.027067 -0.0048506 -0.0091356 0.018161 0.008012 -0.036098 0.076711 -0.0044165 0.0055981 -0.084817 -0.011221 -0.038549 0.0013467 0.032751 0.021654 0.0064775 -0.041152 -0.038658 0.01398 0.024074 0.01107 -0.00079065 -0.010411 -0.058388 0.021481 0.0013435 -0.0066877 0.037295 -0.01417 -0.0072089 -0.034895 0.016506 -0.038935 -0.0036134 -0.0032964 -0.024652 0.020798 -0.027285 -0.0033784 0.036813 -0.013484 -0.018395 0.0045732 -0.019062 0.030197 -0.011452 0.028035 -0.00089751 -0.054072 -0.0040331 0.043359 -0.020973 -0.0099786 -0.039436 -0.042488 -0.00591 0.091461 -0.026861 -0.024865 -0.027458 0.0058078 0.012038 -0.002213 -0.03207 0.0097959 -0.014896 -0.023765 0.031364 -0.022086 -0.036313 -0.014316 0.0077187 -0.0043931 0.031667 -0.0038775 -0.00085135 -0.032739 -0.013132 -0.0074923 0.019946 -0.044872 -0.0046926 -0.0055826 0.0063126 0.03203 0.0111 -0.0018205 -0.012286 -0.011606 -0.011279 -0.072771 0.0015237 0.017448 -0.026984 0.050777 0.041733 0.011096 0.031963 -0.028882 0.0062992 0.032521 -0.016151 -0.013614 0.094761 -0.061158 -0.016297 0.0012654 0.0084352 0.0062876 0.0093951 -0.0025419 0.026251 0.016834 -0.0097944 -0.058561 -0.0088295 0.03052 0.065141 -0.028761 0.049776 -0.0077705 -0.0040136 -0.021167 -0.0021933 -0.034589 -0.016438 0.099443 -0.045491 0.042517 0.0094927 0.018486 -0.0035364 -0.020529 -0.01169 0.013754 0.0014892 0.017425 -0.02276 0.045892 0.020709 -0.0079964 -0.013779 0.028975 0.016585 -0.045088 -0.041148 0.0050355 0.0054668 0.018116 0.00069718 0.002996 -0.046512 0.018803 -0.06407 0.026578 0.011823 0.042374 0.041127 0.017564 -0.019514 -0.034496 0.018975 0.028989 -0.05853 0.010385 -0.00413 -0.0054314 -0.025047 0.021097 0.0012351 -0.011426 -0.028415 -0.0052113 0.059136 -0.011061 0.028381 -0.022967 0.017247 -0.023954 -0.029148 0.017675 -0.041941 -0.0248 0.0040287 0.010596 0.099743 -0.023051 -0.021385 0.049233 -0.0023635 -0.015587 0.0053816 -0.046625 0.01787 0.027751 0.01124 0.027809 -0.031308 -0.046264 0.0031874 -0.032935 -0.0014317 0.0033914 -0.011702 -0.027175 -0.041235 0.035315 -0.015105 -0.037149 -0.015021 -0.022605 0.095818 0.031254 0.0095923 0.0056779 0.045692 0.037975 0.0042138 -0.022266 -0.0086008 0.014461 -0.0069599 -0.0064173 -0.031326 -0.023135 0.01358 0.020223 -0.017977 -0.026989 0.015612 0.038093 0.016882 -0.023202 -0.015218 -0.026184 -0.0025069 -0.0014065 -0.0074494 0.015531 -0.0015867 0.015307 -0.072531 -0.025881 0.0015773 0.0042635 -0.0076968 -0.0014411 -0.010841 -0.11932 0.0054118 0.01394 0.035129 0.025199 -0.058413 -0.026705 0.04098 0.058212 0.028665 -0.012849 -0.041947 -0.030636 
pheebs -0.0061783 -0.086597 0.052795 -0.02543 -0.00063521 -0.053801 0.004412 0.019897 0.08818 0.018558 0.020893 -0.030132 -0.031053 0.0012717 0.014953 0.01734 0.0018289 -0.0011954 -0.09258 0.038601 -0.011044 -0.0072773 0.01469 -0.0039363 -0.079792 0.015036 -0.063727 0.0018164 0.029232 -0.0019457 0.0037871 -0.0041408 0.0071993 -0.02029 -0.0054884 0.0032806 0.014704 -0.003804 0.027753 0.0029687 -0.00036878 -0.038562 -0.0057137 0.023487 0.0085833 0.083511 -0.028015 0.023477 -0.066742 -0.015438 0.0057094 -0.028742 0.014629 0.028036 -0.031887 -0.0057197 -0.039559 0.011194 0.041589 -0.013641 -0.0017735 -0.0065454 -0.078536 -0.025473 0.0023578 -0.00056036 -0.0058552 -0.0018616 -0.042474 -0.0022696 0.019107 0.017104 -0.011992 -0.0087236 -0.012431 0.023805 -0.010197 -0.0076854 0.014369 0.0044643 0.020444 -0.00054286 0.0054577 -0.0051662 0.021383 0.02778 0.018301 -0.012668 0.010196 -0.01005 -0.03483 0.015027 -0.062272 0.001964 0.023616 0.16742 -0.02103 -0.022131 0.02443 0.0064997 0.0021842 -0.016354 0.0046504 0.021544 -0.034393 0.0063775 -0.020187 -0.02208 -0.063553 0.0028039 -0.00019703 -0.04486 0.031832 0.0228 -0.01016 -0.0080687 0.010151 0.012563 0.027892 -0.070787 0.0066207 0.0024179 -0.009373 -0.035809 0.031556 0.014612 0.0081612 0.029524 0.033969 -0.0331 0.0076861 0.026791 -0.0070388 0.074688 0.0077847 -0.02827 0.017064 0.0049211 0.015012 -0.010093 -0.021002 0.015001 0.016602 -0.068978 -0.048593 0.0068571 -0.025941 -0.053302 0.023059 0.0023107 -0.002757 0.0074844 0.0080971 -0.023013 0.0060183 -0.026548 0.019692 -0.038627 0.063021 0.0017801 0.035558 0.014223 0.011526 -0.011143 -0.0052903 0.054568 0.0025924 -0.014105 -0.0017878 0.012897 -0.0052793 0.029768 0.0069574 -0.0082777 -0.0099191 0.01865 0.00025283 -0.015213 0.00079009 0.010067 -0.0084961 -0.01824 0.019334 -0.038009 -0.06668 -0.0011815 0.01359 0.04286 -0.0068993 0.016477 -0.031763 0.017449 -0.095545 0.0090813 -0.018694 0.0012701 -0.026848 0.022094 0.00029387 -0.016934 -0.061818 0.019894 0.0040755 0.019605 0.0097568 0.029507 0.02643 0.039303 -0.0044295 -0.021532 -0.012709 -0.0051011 0.033725 -0.050351 -0.015341 0.0090069 -0.00079056 -0.0056603 0.0070164 -0.0080895 0.007023 -0.0016816 -0.0027567 0.032971 0.13222 -0.0030621 -0.00049089 -0.022659 0.022694 -0.0022173 -0.013403 -0.055562 0.039618 0.0066241 0.0082131 0.042326 -0.015976 0.019737 0.023979 -0.031635 -0.031292 0.015398 0.010297 -0.057361 -0.018593 0.074071 0.0059732 -0.042639 -0.01775 -0.01882 0.061615 -0.0063838 0.012086 -0.0090576 0.020881 0.0188 -0.00040438 0.003243 -0.0063753 -0.0078715 -0.0079184 -0.028232 0.0059676 -0.010723 0.01101 -0.023439 -0.013659 -0.020855 -0.03129 0.013554 0.047916 -0.0076579 -0.02237 -0.010812 -0.019663 0.0053757 -0.0062581 0.026275 -0.02858 0.021129 -0.074012 -0.0078808 -0.027293 0.012196 -0.0077754 0.015875 -0.030856 -0.0078918 0.0014945 0.010245 0.012167 0.054123 -0.099024 -0.040114 0.0043644 0.10489 0.013415 9.1864e-05 -0.0082008 0.0060325 
pheebs -0.0061783 -0.086597 0.052795 -0.02543 -0.00063521 -0.053801 0.004412 0.019897 0.08818 0.018558 0.020893 -0.030132 -0.031053 0.0012717 0.014953 0.01734 0.0018289 -0.0011954 -0.09258 0.038601 -0.011044 -0.0072773 0.01469 -0.0039363 -0.079792 0.015036 -0.063727 0.0018164 0.029232 -0.0019457 0.0037871 -0.0041408 0.0071993 -0.02029 -0.0054884 0.0032806 0.014704 -0.003804 0.027753 0.0029687 -0.00036878 -0.038562 -0.0057137 0.023487 0.0085833 0.083511 -0.028015 0.023477 -0.066742 -0.015438 0.0057094 -0.028742 0.014629 0.028036 -0.031887 -0.0057197 -0.039559 0.011194 0.041589 -0.013641 -0.0017735 -0.0065454 -0.078536 -0.025473 0.0023578 -0.00056036 -0.0058552 -0.0018616 -0.042474 -0.0022696 0.019107 0.017104 -0.011992 -0.0087236 -0.012431 0.023805 -0.010197 -0.0076854 0.014369 0.0044643 0.020444 -0.00054286 0.0054577 -0.0051662 0.021383 0.02778 0.018301 -0.012668 0.010196 -0.01005 -0.03483 0.015027 -0.062272 0.001964 0.023616 0.16742 -0.02103 -0.022131 0.02443 0.0064997 0.0021842 -0.016354 0.0046504 0.021544 -0.034393 0.0063775 -0.020187 -0.02208 -0.063553 0.0028039 -0.00019703 -0.04486 0.031832 0.0228 -0.01016 -0.0080687 0.010151 0.012563 0.027892 -0.070787 0.0066207 0.0024179 -0.009373 -0.035809 0.031556 0.014612 0.0081612 0.029524 0.033969 -0.0331 0.0076861 0.026791 -0.0070388 0.074688 0.0077847 -0.02827 0.017064 0.0049211 0.015012 -0.010093 -0.021002 0.015001 0.016602 -0.068978 -0.048593 0.0068571 -0.025941 -0.053302 0.023059 0.0023107 -0.002757 0.0074844 0.0080971 -0.023013 0.0060183 -0.026548 0.019692 -0.038627 0.063021 0.0017801 0.035558 0.014223 0.011526 -0.011143 -0.0052903 0.054568 0.0025924 -0.014105 -0.0017878 0.012897 -0.0052793 0.029768 0.0069574 -0.0082777 -0.0099191 0.01865 0.00025283 -0.015213 0.00079009 0.010067 -0.0084961 -0.01824 0.019334 -0.038009 -0.06668 -0.0011815 0.01359 0.04286 -0.0068993 0.016477 -0.031763 0.017449 -0.095545 0.0090813 -0.018694 0.0012701 -0.026848 0.022094 0.00029387 -0.016934 -0.061818 0.019894 0.0040755 0.019605 0.0097568 0.029507 0.02643 0.039303 -0.0044295 -0.021532 -0.012709 -0.0051011 0.033725 -0.050351 -0.015341 0.0090069 -0.00079056 -0.0056603 0.0070164 -0.0080895 0.007023 -0.0016816 -0.0027567 0.032971 0.13222 -0.0030621 -0.00049089 -0.022659 0.022694 -0.0022173 -0.013403 -0.055562 0.039618 0.0066241 0.0082131 0.042326 -0.015976 0.019737 0.023979 -0.031635 -0.031292 0.015398 0.010297 -0.057361 -0.018593 0.074071 0.0059732 -0.042639 -0.01775 -0.01882 0.061615 -0.0063838 0.012086 -0.0090576 0.020881 0.0188 -0.00040438 0.003243 -0.0063753 -0.0078715 -0.0079184 -0.028232 0.0059676 -0.010723 0.01101 -0.023439 -0.013659 -0.020855 -0.03129 0.013554 0.047916 -0.0076579 -0.02237 -0.010812 -0.019663 0.0053757 -0.0062581 0.026275 -0.02858 0.021129 -0.074012 -0.0078808 -0.027293 0.012196 -0.0077754 0.015875 -0.030856 -0.0078918 0.0014945 0.010245 0.012167 0.054123 -0.099024 -0.040114 0.0043644 0.10489 0.013415 9.1864e-05 -0.0082008 0.0060325 
What -0.0073051 0.024658 0.086058 -0.0061637 0.029645 0.037537 0.060367 0.0084108 -0.017328 0.037424 -0.0079339 -0.021125 0.018328 -0.033096 -0.019843 -0.0080865 0.048717 0.017737 -0.047524 0.071276 0.018786 -0.017908 -0.010975 0.017336 0.027385 -0.0017919 -0.039559 -0.00019847 -0.013273 0.0027365 -0.032533 0.0041171 0.010532 0.032826 -0.030501 0.027205 0.02229 0.018393 0.017567 0.051184 0.04981 -0.034035 0.0048809 0.030353 -0.011627 0.048544 0.010398 -0.035779 -0.065178 0.003382 -0.017461 -0.017402 0.034572 -0.025723 -0.03284 -0.016117 0.090688 -0.018042 0.0018755 0.046917 -0.0033955 -0.017094 -0.088626 -0.0072155 3.6876e-05 0.02261 0.010746 -0.13203 0.0065676 -0.029844 0.029271 -0.0090255 -0.010466 -0.0069038 0.037078 0.036099 -0.018417 -0.0074657 0.12987 0.0053152 0.019707 -0.024346 -0.10852 0.014503 0.0019377 0.011783 0.019623 -0.005266 0.071753 -0.0016514 -0.039537 -0.014702 -0.035803 0.070511 -0.060774 0.16062 -0.013715 7.0748e-05 0.0080524 -0.040325 0.0062065 0.014429 0.040999 0.022749 -0.040905 0.023413 -0.013566 0.017392 -0.048227 0.017107 -0.01649 -0.019805 -0.00011472 -0.029134 -0.0082756 -0.031424 -0.094555 -0.018748 0.027819 -0.1234 0.012736 -0.014811 -0.0097513 -0.02793 -0.039337 0.033787 -0.0011261 -0.0024803 0.014573 -0.0039344 0.0074708 0.016728 -0.027284 0.041502 0.0038478 0.0164 -0.031097 -0.044791 -0.0066633 -0.0046404 0.039183 -0.01598 -0.031283 0.10697 -0.0015259 -0.014892 0.008391 0.030056 0.041037 0.0010746 -0.0062094 -0.014716 -0.0040941 0.0097781 0.008918 -0.010565 -0.19667 -0.058042 0.021783 -0.021871 -0.024318 0.074109 0.0026476 0.0037915 0.0086446 0.06617 0.020239 -0.018914 -0.02323 -3.7916e-05 0.033951 0.065283 0.03037 -0.030207 -0.010506 -0.014701 -0.080619 -0.014363 0.058736 0.02184 -0.026243 -0.025306 -0.018798 0.039026 -0.035832 -0.029585 -0.011337 -0.11425 0.029618 0.013538 0.051798 -0.048367 -0.04313 0.032331 -0.014623 0.031982 -0.0081281 0.015647 0.0097695 0.029736 -0.067402 0.0076311 0.022167 0.018441 0.016983 0.069457 0.0082347 0.018955 -0.059195 0.026419 -0.10588 -0.0049773 0.11222 -0.01734 0.01718 0.019625 -0.0094732 0.0021972 -0.080401 -0.0011098 -0.022433 -0.009087 -0.035477 0.0085628 0.094727 0.011961 0.046983 0.029264 0.012862 -0.015021 -0.040664 0.01047 -0.02972 -0.020182 -0.021921 -0.029194 -0.021175 0.037687 -0.028507 0.03704 0.0011017 -0.010708 0.02781 0.025869 -0.010996 -0.022586 0.007883 0.1043 -0.0318 -0.010908 -0.064597 0.00074228 0.0074771 -0.0094689 -0.041676 -0.0034439 0.012092 0.036146 -0.011068 -0.0012462 0.033351 -0.0046039 0.0039505 0.0040553 0.014157 -0.0032356 0.010762 -0.0045483 -0.01934 0.040491 -0.093424 0.017682 -0.050087 0.01748 -0.0041891 0.0040446 -0.031545 -0.0086066 -0.019915 -0.029459 0.064579 -0.0022685 0.0050409 -0.062032 0.013269 0.11051 0.021919 0.064762 0.0095396 0.014933 0.0079945 -0.0072217 0.068885 -0.030246 -0.031908 0.10353 -0.027611 0.015919 0.03422 -0.024364 
15 -0.0057589 -0.20519 -0.050234 0.077058 0.098086 0.30758 -0.073429 0.0096398 0.12026 0.046447 0.00143 0.035054 -0.036623 0.035109 -0.019837 -0.031468 -0.028751 0.041489 0.042702 0.14495 -0.36992 -0.092973 -0.12117 0.071052 -0.19516 0.050788 -0.14597 -0.017795 -0.059439 -0.0024077 0.0078444 -0.11089 -0.016876 0.026786 0.069942 0.10427 -0.042623 -0.057846 -0.0077228 0.051357 0.078666 0.045459 0.055605 -0.035643 0.027684 0.13034 -0.04459 -0.0029764 -0.11845 0.056248 -0.0034906 -0.0058199 -0.094089 -0.039203 0.12996 0.0010933 0.15084 0.034182 -0.069479 -0.0088912 0.014317 -0.15628 0.0052434 0.020001 0.018929 -0.013494 -0.012625 -0.14382 0.011551 -0.036344 -0.041499 0.016989 -0.018274 -0.020788 -0.081143 -0.014406 0.0058901 -0.0019926 -0.029939 0.015284 -0.050413 0.017425 -0.091737 0.0019122 0.024446 0.018107 -0.027034 -0.042149 0.085417 -0.020878 0.007476 -0.014992 0.016861 0.092492 0.015152 0.28491 -0.045166 -0.014396 0.053787 -0.03724 0.021719 -0.030084 0.017062 0.01991 0.038041 0.022466 -0.024231 0.024979 -0.13032 0.016144 -0.060407 -0.031237 -0.016509 0.061277 0.024972 0.035488 -0.091246 -0.014193 -0.020963 -0.46076 0.035593 -0.029479 0.030066 0.0067429 0.023267 0.0012172 0.04316 -0.068807 -0.02114 0.091127 0.0097205 -0.0030403 -0.013188 0.37497 -0.013276 0.040963 -0.0059256 -0.0074982 -0.040325 -0.079969 0.0010924 0.0050891 0.017241 -0.47842 0.14869 -0.012751 -0.029438 -0.044712 -0.0013313 0.018503 -0.0386 0.049219 -0.043104 -0.17103 0.019244 -0.062865 -0.15192 0.069067 -0.01269 -0.044631 -0.03857 0.12302 -0.049749 0.0035903 0.033944 -0.078761 0.0033866 -0.023503 0.032354 0.011975 0.049574 0.027682 -0.0085566 -0.0069053 -0.0078634 -0.010881 -0.081439 0.00025365 -0.012698 -0.14229 0.028895 0.069244 0.0086832 0.066036 0.094888 -0.048484 -0.049789 -0.04976 -0.03202 0.034243 0.037359 0.023006 -0.040737 -0.0045782 -0.023583 0.0038066 0.15206 0.0062924 -0.068241 0.029112 0.1312 0.0034126 -0.0024776 0.0095918 -0.026406 0.016225 0.019382 0.039996 0.067821 0.064926 -0.34785 -0.027019 -0.079993 0.0017174 -0.025404 0.0047831 0.0074297 -0.011262 0.15184 -0.020805 0.013441 0.034856 -0.13764 -0.0068935 0.1517 0.019671 0.10895 -0.11201 0.0066813 -0.008509 -0.080894 0.04819 0.033342 0.00069628 -0.013639 0.0079221 -0.0069619 0.077498 0.010896 -0.047831 -0.089884 0.071412 -0.030344 0.0052814 -0.0068408 0.28977 0.057184 0.22194 -0.0057544 -0.012987 -0.02367 -0.020621 0.0041351 -0.10466 0.00097261 -0.067396 -0.055983 0.039366 0.015357 -0.040391 0.042854 0.0098341 0.03543 0.0081996 0.018448 -0.051212 -0.019155 0.028753 -0.12426 0.038305 0.014823 -0.021673 0.16721 0.060398 -0.057377 0.059864 0.091186 -0.013544 0.029385 0.025263 -0.27877 0.012912 0.030554 -0.064717 0.010497 0.00085174 0.019024 0.078813 0.031477 -0.0030493 -0.065692 -0.1185 0.037326 0.035407 0.023479 -0.055667 0.08052 -0.025836 0.0017213 0.076546 
What -0.0073051 0.024658 0.086058 -0.0061637 0.029645 0.037537 0.060367 0.0084108 -0.017328 0.037424 -0.0079339 -0.021125 0.018328 -0.033096 -0.019843 -0.0080865 0.048717 0.017737 -0.047524 0.071276 0.018786 -0.017908 -0.010975 0.017336 0.027385 -0.0017919 -0.039559 -0.00019847 -0.013273 0.0027365 -0.032533 0.0041171 0.010532 0.032826 -0.030501 0.027205 0.02229 0.018393 0.017567 0.051184 0.04981 -0.034035 0.0048809 0.030353 -0.011627 0.048544 0.010398 -0.035779 -0.065178 0.003382 -0.017461 -0.017402 0.034572 -0.025723 -0.03284 -0.016117 0.090688 -0.018042 0.0018755 0.046917 -0.0033955 -0.017094 -0.088626 -0.0072155 3.6876e-05 0.02261 0.010746 -0.13203 0.0065676 -0.029844 0.029271 -0.0090255 -0.010466 -0.0069038 0.037078 0.036099 -0.018417 -0.0074657 0.12987 0.0053152 0.019707 -0.024346 -0.10852 0.014503 0.0019377 0.011783 0.019623 -0.005266 0.071753 -0.0016514 -0.039537 -0.014702 -0.035803 0.070511 -0.060774 0.16062 -0.013715 7.0748e-05 0.0080524 -0.040325 0.0062065 0.014429 0.040999 0.022749 -0.040905 0.023413 -0.013566 0.017392 -0.048227 0.017107 -0.01649 -0.019805 -0.00011472 -0.029134 -0.0082756 -0.031424 -0.094555 -0.018748 0.027819 -0.1234 0.012736 -0.014811 -0.0097513 -0.02793 -0.039337 0.033787 -0.0011261 -0.0024803 0.014573 -0.0039344 0.0074708 0.016728 -0.027284 0.041502 0.0038478 0.0164 -0.031097 -0.044791 -0.0066633 -0.0046404 0.039183 -0.01598 -0.031283 0.10697 -0.0015259 -0.014892 0.008391 0.030056 0.041037 0.0010746 -0.0062094 -0.014716 -0.0040941 0.0097781 0.008918 -0.010565 -0.19667 -0.058042 0.021783 -0.021871 -0.024318 0.074109 0.0026476 0.0037915 0.0086446 0.06617 0.020239 -0.018914 -0.02323 -3.7916e-05 0.033951 0.065283 0.03037 -0.030207 -0.010506 -0.014701 -0.080619 -0.014363 0.058736 0.02184 -0.026243 -0.025306 -0.018798 0.039026 -0.035832 -0.029585 -0.011337 -0.11425 0.029618 0.013538 0.051798 -0.048367 -0.04313 0.032331 -0.014623 0.031982 -0.0081281 0.015647 0.0097695 0.029736 -0.067402 0.0076311 0.022167 0.018441 0.016983 0.069457 0.0082347 0.018955 -0.059195 0.026419 -0.10588 -0.0049773 0.11222 -0.01734 0.01718 0.019625 -0.0094732 0.0021972 -0.080401 -0.0011098 -0.022433 -0.009087 -0.035477 0.0085628 0.094727 0.011961 0.046983 0.029264 0.012862 -0.015021 -0.040664 0.01047 -0.02972 -0.020182 -0.021921 -0.029194 -0.021175 0.037687 -0.028507 0.03704 0.0011017 -0.010708 0.02781 0.025869 -0.010996 -0.022586 0.007883 0.1043 -0.0318 -0.010908 -0.064597 0.00074228 0.0074771 -0.0094689 -0.041676 -0.0034439 0.012092 0.036146 -0.011068 -0.0012462 0.033351 -0.0046039 0.0039505 0.0040553 0.014157 -0.0032356 0.010762 -0.0045483 -0.01934 0.040491 -0.093424 0.017682 -0.050087 0.01748 -0.0041891 0.0040446 -0.031545 -0.0086066 -0.019915 -0.029459 0.064579 -0.0022685 0.0050409 -0.062032 0.013269 0.11051 0.021919 0.064762 0.0095396 0.014933 0.0079945 -0.0072217 0.068885 -0.030246 -0.031908 0.10353 -0.027611 0.015919 0.03422 -0.024364 
No 0.0038878 -0.040955 0.15756 -0.074598 0.025385 0.1107 0.019896 0.011736 0.032264 0.0071234 -0.036144 -0.054206 -0.055519 -0.052741 0.025295 -0.068506 0.018965 0.048651 -0.12282 -0.025538 -0.0607 0.030034 -0.0090856 -0.10494 -0.10534 0.027298 0.15734 0.016127 -0.035169 -0.0061021 0.0010609 -0.026635 -0.010924 0.0074753 0.17423 0.12189 -0.013434 -0.015488 0.027693 0.00017955 0.054821 -0.18898 -0.0089532 0.040887 0.046774 0.10878 -0.020926 0.059932 -0.17027 0.045711 0.049181 -0.023006 -0.032366 0.034225 -0.014952 -0.035514 0.070758 0.0022675 -0.0040558 0.066106 -0.029944 0.073873 -0.14796 0.019369 -0.014342 0.019161 0.013111 -0.21462 0.060251 0.057142 0.047708 0.021131 0.00090727 0.010159 0.0014259 -0.0058926 -0.030214 -0.0052835 0.032772 0.033461 0.088655 -0.039013 -0.27372 0.0057949 -0.055398 0.012529 -0.028818 -0.043795 -0.030693 0.088238 -0.11927 -0.016798 -0.055003 0.18325 0.012383 0.29595 0.055868 0.035947 -0.045436 0.10321 0.093004 0.051354 0.077389 0.041946 0.082582 -0.049056 0.055117 0.084054 -0.063052 -0.048664 -0.046234 -0.091006 -0.04978 -0.21701 -0.0084324 -0.039504 -0.073707 -0.011094 0.018033 -0.30092 0.031286 -0.044393 -0.053485 -0.03625 -0.063014 -0.022224 0.06962 -0.23245 0.033417 -0.022816 0.011827 0.058074 0.058668 0.11236 -0.0063642 -0.025524 0.064243 -0.025378 0.048816 0.14258 0.0096959 -0.019224 -0.095723 0.028388 -0.010748 -0.088875 -0.011435 -0.024104 0.0042768 0.031728 0.098634 0.0059609 -0.036397 0.013457 0.026188 -0.0094095 -0.10699 -0.10536 -0.021936 -0.016044 -0.067205 0.039565 0.08762 -0.056417 -0.071444 0.070545 -0.032031 -0.013752 -0.049495 -0.00078302 0.036969 0.016295 -0.0084934 0.0058095 -0.023443 -0.016485 -0.18957 -0.00026878 -0.14944 0.013764 0.033174 0.023629 -0.060519 0.03894 0.1019 -0.0037643 -0.013792 -0.18426 0.0012398 0.015252 -0.0088879 -0.057484 -0.047178 0.068636 -0.018928 0.012791 -0.05702 0.037473 0.0020947 0.10296 -0.11067 -0.035539 -0.014911 -0.019035 -0.012748 0.1336 -0.014901 -0.0023382 -0.011857 0.033897 -0.24622 -0.013891 0.079847 -0.057675 0.043326 -0.037225 0.12928 -0.01259 0.1034 0.021354 -0.0076821 0.013948 -0.11691 0.019682 0.33443 -0.021405 0.028822 -0.076118 -0.051618 0.034993 0.042756 0.087466 -0.037579 0.063135 -0.042022 -0.14034 0.0066111 0.038739 -0.0094061 0.052716 -0.042795 0.024527 0.098438 0.012584 0.016647 -0.069801 0.00052961 0.29217 -0.068155 0.026719 -0.12445 -0.036178 -0.00048736 0.020734 -0.1943 -0.026826 0.048591 0.075578 0.054191 -0.017349 0.067462 -0.070021 -0.042527 -0.091509 0.0068557 0.0046464 -0.030241 0.011228 0.0049853 -0.018385 0.0063083 0.050035 0.014623 0.038398 0.0056001 0.065474 -0.071344 0.17981 -0.0049517 -0.027194 0.077807 -0.014007 -0.019036 -0.058314 0.013687 0.15185 0.024292 0.017841 0.038432 0.0066348 -0.050755 -0.030594 0.045563 -0.076756 -0.057246 0.068938 -0.17781 -0.059277 -0.10474 0.081076 
No 0.0038878 -0.040955 0.15756 -0.074598 0.025385 0.1107 0.019896 0.011736 0.032264 0.0071234 -0.036144 -0.054206 -0.055519 -0.052741 0.025295 -0.068506 0.018965 0.048651 -0.12282 -0.025538 -0.0607 0.030034 -0.0090856 -0.10494 -0.10534 0.027298 0.15734 0.016127 -0.035169 -0.0061021 0.0010609 -0.026635 -0.010924 0.0074753 0.17423 0.12189 -0.013434 -0.015488 0.027693 0.00017955 0.054821 -0.18898 -0.0089532 0.040887 0.046774 0.10878 -0.020926 0.059932 -0.17027 0.045711 0.049181 -0.023006 -0.032366 0.034225 -0.014952 -0.035514 0.070758 0.0022675 -0.0040558 0.066106 -0.029944 0.073873 -0.14796 0.019369 -0.014342 0.019161 0.013111 -0.21462 0.060251 0.057142 0.047708 0.021131 0.00090727 0.010159 0.0014259 -0.0058926 -0.030214 -0.0052835 0.032772 0.033461 0.088655 -0.039013 -0.27372 0.0057949 -0.055398 0.012529 -0.028818 -0.043795 -0.030693 0.088238 -0.11927 -0.016798 -0.055003 0.18325 0.012383 0.29595 0.055868 0.035947 -0.045436 0.10321 0.093004 0.051354 0.077389 0.041946 0.082582 -0.049056 0.055117 0.084054 -0.063052 -0.048664 -0.046234 -0.091006 -0.04978 -0.21701 -0.0084324 -0.039504 -0.073707 -0.011094 0.018033 -0.30092 0.031286 -0.044393 -0.053485 -0.03625 -0.063014 -0.022224 0.06962 -0.23245 0.033417 -0.022816 0.011827 0.058074 0.058668 0.11236 -0.0063642 -0.025524 0.064243 -0.025378 0.048816 0.14258 0.0096959 -0.019224 -0.095723 0.028388 -0.010748 -0.088875 -0.011435 -0.024104 0.0042768 0.031728 0.098634 0.0059609 -0.036397 0.013457 0.026188 -0.0094095 -0.10699 -0.10536 -0.021936 -0.016044 -0.067205 0.039565 0.08762 -0.056417 -0.071444 0.070545 -0.032031 -0.013752 -0.049495 -0.00078302 0.036969 0.016295 -0.0084934 0.0058095 -0.023443 -0.016485 -0.18957 -0.00026878 -0.14944 0.013764 0.033174 0.023629 -0.060519 0.03894 0.1019 -0.0037643 -0.013792 -0.18426 0.0012398 0.015252 -0.0088879 -0.057484 -0.047178 0.068636 -0.018928 0.012791 -0.05702 0.037473 0.0020947 0.10296 -0.11067 -0.035539 -0.014911 -0.019035 -0.012748 0.1336 -0.014901 -0.0023382 -0.011857 0.033897 -0.24622 -0.013891 0.079847 -0.057675 0.043326 -0.037225 0.12928 -0.01259 0.1034 0.021354 -0.0076821 0.013948 -0.11691 0.019682 0.33443 -0.021405 0.028822 -0.076118 -0.051618 0.034993 0.042756 0.087466 -0.037579 0.063135 -0.042022 -0.14034 0.0066111 0.038739 -0.0094061 0.052716 -0.042795 0.024527 0.098438 0.012584 0.016647 -0.069801 0.00052961 0.29217 -0.068155 0.026719 -0.12445 -0.036178 -0.00048736 0.020734 -0.1943 -0.026826 0.048591 0.075578 0.054191 -0.017349 0.067462 -0.070021 -0.042527 -0.091509 0.0068557 0.0046464 -0.030241 0.011228 0.0049853 -0.018385 0.0063083 0.050035 0.014623 0.038398 0.0056001 0.065474 -0.071344 0.17981 -0.0049517 -0.027194 0.077807 -0.014007 -0.019036 -0.058314 0.013687 0.15185 0.024292 0.017841 0.038432 0.0066348 -0.050755 -0.030594 0.045563 -0.076756 -0.057246 0.068938 -0.17781 -0.059277 -0.10474 0.081076 
No 0.0038878 -0.040955 0.15756 -0.074598 0.025385 0.1107 0.019896 0.011736 0.032264 0.0071234 -0.036144 -0.054206 -0.055519 -0.052741 0.025295 -0.068506 0.018965 0.048651 -0.12282 -0.025538 -0.0607 0.030034 -0.0090856 -0.10494 -0.10534 0.027298 0.15734 0.016127 -0.035169 -0.0061021 0.0010609 -0.026635 -0.010924 0.0074753 0.17423 0.12189 -0.013434 -0.015488 0.027693 0.00017955 0.054821 -0.18898 -0.0089532 0.040887 0.046774 0.10878 -0.020926 0.059932 -0.17027 0.045711 0.049181 -0.023006 -0.032366 0.034225 -0.014952 -0.035514 0.070758 0.0022675 -0.0040558 0.066106 -0.029944 0.073873 -0.14796 0.019369 -0.014342 0.019161 0.013111 -0.21462 0.060251 0.057142 0.047708 0.021131 0.00090727 0.010159 0.0014259 -0.0058926 -0.030214 -0.0052835 0.032772 0.033461 0.088655 -0.039013 -0.27372 0.0057949 -0.055398 0.012529 -0.028818 -0.043795 -0.030693 0.088238 -0.11927 -0.016798 -0.055003 0.18325 0.012383 0.29595 0.055868 0.035947 -0.045436 0.10321 0.093004 0.051354 0.077389 0.041946 0.082582 -0.049056 0.055117 0.084054 -0.063052 -0.048664 -0.046234 -0.091006 -0.04978 -0.21701 -0.0084324 -0.039504 -0.073707 -0.011094 0.018033 -0.30092 0.031286 -0.044393 -0.053485 -0.03625 -0.063014 -0.022224 0.06962 -0.23245 0.033417 -0.022816 0.011827 0.058074 0.058668 0.11236 -0.0063642 -0.025524 0.064243 -0.025378 0.048816 0.14258 0.0096959 -0.019224 -0.095723 0.028388 -0.010748 -0.088875 -0.011435 -0.024104 0.0042768 0.031728 0.098634 0.0059609 -0.036397 0.013457 0.026188 -0.0094095 -0.10699 -0.10536 -0.021936 -0.016044 -0.067205 0.039565 0.08762 -0.056417 -0.071444 0.070545 -0.032031 -0.013752 -0.049495 -0.00078302 0.036969 0.016295 -0.0084934 0.0058095 -0.023443 -0.016485 -0.18957 -0.00026878 -0.14944 0.013764 0.033174 0.023629 -0.060519 0.03894 0.1019 -0.0037643 -0.013792 -0.18426 0.0012398 0.015252 -0.0088879 -0.057484 -0.047178 0.068636 -0.018928 0.012791 -0.05702 0.037473 0.0020947 0.10296 -0.11067 -0.035539 -0.014911 -0.019035 -0.012748 0.1336 -0.014901 -0.0023382 -0.011857 0.033897 -0.24622 -0.013891 0.079847 -0.057675 0.043326 -0.037225 0.12928 -0.01259 0.1034 0.021354 -0.0076821 0.013948 -0.11691 0.019682 0.33443 -0.021405 0.028822 -0.076118 -0.051618 0.034993 0.042756 0.087466 -0.037579 0.063135 -0.042022 -0.14034 0.0066111 0.038739 -0.0094061 0.052716 -0.042795 0.024527 0.098438 0.012584 0.016647 -0.069801 0.00052961 0.29217 -0.068155 0.026719 -0.12445 -0.036178 -0.00048736 0.020734 -0.1943 -0.026826 0.048591 0.075578 0.054191 -0.017349 0.067462 -0.070021 -0.042527 -0.091509 0.0068557 0.0046464 -0.030241 0.011228 0.0049853 -0.018385 0.0063083 0.050035 0.014623 0.038398 0.0056001 0.065474 -0.071344 0.17981 -0.0049517 -0.027194 0.077807 -0.014007 -0.019036 -0.058314 0.013687 0.15185 0.024292 0.017841 0.038432 0.0066348 -0.050755 -0.030594 0.045563 -0.076756 -0.057246 0.068938 -0.17781 -0.059277 -0.10474 0.081076 
And 0.017762 -0.046953 -0.0059845 0.0068461 0.0051485 0.038825 0.0029285 -0.0033852 0.031206 0.14059 -0.040459 -0.021913 -0.00072563 -0.0036094 0.019548 -0.011381 0.024455 0.028338 -0.058481 0.094705 -0.091495 0.025221 -0.025658 0.0027091 -0.046085 0.029294 0.070717 0.018706 -0.011496 -0.03628 -0.0040418 0.040016 0.0071371 0.027749 0.01122 0.042615 -0.006134 -0.020536 0.032737 0.03864 -0.031929 -0.02162 0.012689 0.0075953 0.06777 0.04097 -0.048508 0.016218 -0.05316 -0.0027076 0.018862 -0.00073261 0.0084991 -0.004144 0.044712 -0.0037577 0.16221 -0.00099564 -0.010804 0.059604 -0.017343 -0.021111 -0.022399 -0.026915 -0.0034354 -0.012019 0.063654 -0.066639 0.0017623 0.048978 -0.0027301 -0.042202 -0.00081704 0.002994 0.045335 0.011295 0.01337 -0.0051256 0.068338 -0.021807 0.030819 -0.034928 -0.14312 -0.012148 0.043442 -0.0075282 -0.0080644 0.021737 -0.018501 0.023982 -0.053253 -0.010558 -0.056488 0.042783 -0.014978 0.26699 0.014347 0.024576 0.0094079 0.00099089 -0.01996 0.034806 -0.017318 0.0090423 -0.0010405 0.026754 0.010262 -0.0005315 0.056212 0.026889 -0.0020911 -0.0055234 0.034222 -0.01981 -0.005498 -0.024156 -0.12761 -0.014482 -0.033755 -0.28819 0.045274 -0.027713 -0.00088018 -0.013574 -0.030574 0.026815 0.036627 -0.063168 -0.042721 -0.0024448 0.013307 0.025686 -0.03964 0.038945 0.024515 -5.3951e-05 -0.026952 -0.014331 -0.0052493 0.043615 0.012273 -0.028835 -0.070841 0.047411 0.019642 -0.033287 0.025178 -0.027233 0.034381 0.0017497 0.0050907 -0.03439 -0.025236 0.037114 0.0044078 -0.014541 -0.093111 -0.049259 0.059511 0.014424 0.013631 0.014876 0.008572 -0.032197 -0.020639 0.0093016 0.033113 0.0070363 -0.0075449 -0.0054078 -0.0021049 0.047971 -0.0021524 0.010396 0.012911 -0.0051662 -0.13678 0.02129 -0.029012 0.067356 -0.0036298 0.012696 0.0096444 0.0064603 -0.031466 -0.019638 -0.035172 0.024622 -0.0078416 -0.0034098 0.016651 -0.017733 -0.075339 0.013715 -0.024619 -0.017217 -0.0048128 -0.0043657 0.02164 0.022493 -0.097773 -0.015809 -0.0033568 0.00015265 0.014833 0.046131 -0.0020721 -0.0012211 -0.024853 0.011227 -0.18932 -0.0062343 0.096386 -0.022187 -0.0070776 0.011223 0.012139 -0.036741 -0.097492 0.032147 0.0071447 -0.029539 0.0051167 0.038106 0.069964 0.046571 0.0092841 0.025375 0.024779 0.011516 0.021726 -0.039056 0.0053116 0.020342 -0.017627 0.010158 -0.0089315 -0.0094144 -0.017106 0.0011876 0.018615 0.0018975 0.0019252 0.022835 -0.024166 -0.019727 -0.010539 0.099398 -0.028386 0.029806 -0.099368 -0.026717 -0.012292 0.042348 -0.08333 -0.02029 -0.00036166 0.062249 -0.037632 -0.0074612 -0.019954 -0.034221 -0.022674 0.011556 0.026767 0.021884 0.028827 0.014239 -0.013856 -0.0042472 -0.043949 -0.018992 -0.030431 0.0037614 -0.015738 -0.022024 0.01371 0.012303 -0.014932 -0.024369 0.023101 0.014254 -0.0067026 -0.0019487 0.038758 0.021047 0.0015342 0.063945 -0.036842 0.0087565 0.0067122 0.023547 0.12633 -0.0099016 -0.053722 0.051881 0.051412 -0.036664 0.045418 -0.023394 
How -0.0037785 0.071651 0.11952 -0.024091 0.010133 0.091095 0.036076 -0.023051 -0.028406 0.12583 0.023633 -0.043039 0.0055102 -0.062441 -0.014399 0.037591 0.068781 0.017714 -0.046251 0.10196 -0.076788 -0.025216 -0.029459 0.027455 0.030836 -0.062849 0.018397 0.008118 -0.035978 -0.0096534 -0.04035 -0.027044 0.037831 0.054245 0.027884 -0.049449 -0.038774 -0.00078244 0.030773 0.072148 -0.02788 0.029233 0.0061068 -0.0086836 -0.13647 0.050942 -0.021099 -0.066192 -0.079564 -0.014604 -0.021797 -0.041515 0.015282 -0.073871 -0.019374 -0.0069629 -0.21857 -0.024583 -0.032788 0.038951 -0.020416 -0.0087755 -0.056822 -0.0022508 -0.0026885 -0.025047 0.047391 -0.083169 0.022373 0.029612 0.029251 -0.027078 -0.035121 -0.016465 0.078776 0.066444 -0.03482 0.0062022 0.2249 0.0133 0.045676 -0.0058947 -0.19545 0.042664 -0.0043847 -0.011719 -0.0084842 -0.0060121 0.018672 -0.00055732 -0.12773 -0.015612 -0.017151 -0.12849 -0.09283 0.23035 -0.03409 0.02957 -0.0021724 -0.061776 -0.023831 0.06513 0.060915 0.037453 -0.0070553 -0.003283 -0.039067 0.05522 -0.085327 0.013931 0.012512 -0.0057885 0.0035792 -0.035879 0.0083865 -0.014406 -0.11767 0.00071701 0.0044587 -0.14239 0.083438 -0.0083506 0.0099434 0.043858 -0.059155 0.11441 -0.027547 0.044234 0.037509 0.096762 0.052525 0.016211 -0.048964 0.060747 -0.012272 -0.009281 -0.05871 -0.050365 -0.09324 0.03067 0.035898 -0.0076626 -0.079541 0.17927 0.072895 -0.055885 0.0048254 -0.035856 0.069188 0.010935 -0.016894 0.031375 -0.018132 -0.023145 -0.014268 -0.0064232 -0.082942 0.013726 0.036283 -0.008151 -0.060215 -0.015477 -0.01917 0.0023822 0.0070074 0.030221 0.046211 -0.021825 0.0014014 0.0040951 0.048905 0.12862 0.04916 -0.024123 -0.018263 -0.024361 -0.14386 -0.012507 0.066861 0.052953 -0.024163 -0.011355 -0.020636 0.068673 -0.12787 -0.02642 -0.018417 -0.1076 0.020127 0.029299 0.10824 -0.055867 -0.027394 0.033667 -0.016132 0.035428 0.033626 0.0065725 -0.0035268 0.0020043 -0.087393 -0.045813 0.0056083 0.028224 -0.035653 0.069665 0.022196 -0.010657 -0.028637 0.023002 -0.18078 -0.017171 0.11179 -0.04159 0.029166 0.031566 0.026236 -0.0095036 -0.19045 0.0058543 -0.044579 0.017305 -0.027411 -0.0081665 0.34681 0.02115 0.074234 0.027069 0.0047797 -0.031258 -0.064575 -0.016753 -0.00032136 -0.0050147 -0.0017036 -0.021047 -0.0051475 0.042432 -0.0044094 0.05039 0.041242 -0.010057 0.05675 0.061577 -0.046323 0.004677 0.032812 0.10968 0.0079951 0.055209 -0.054734 -0.010712 -0.017557 0.066318 0.0073129 -0.00059752 0.037493 0.051551 -0.033106 -0.0068311 0.03445 -0.028199 -0.015425 0.012062 0.062327 -0.022765 0.0054809 -0.012771 -0.033003 0.060979 -0.16684 0.020966 -0.020002 0.022168 -0.03605 0.0030507 0.0080618 0.011618 -0.025236 -0.0081391 0.1693 0.046984 0.00567 -0.022712 0.032793 0.13112 0.059934 0.044677 0.02028 0.064596 -0.014103 0.00026348 0.1521 -0.033085 0.0076027 0.07361 -0.096447 0.01214 0.07208 0.0036098 
Why -0.023337 -0.02998 0.051501 -0.0027085 -0.030472 0.084739 0.083153 -0.041856 0.0024277 0.056064 -0.011452 -0.099545 -0.016321 -0.039737 -0.018637 -0.037579 0.046991 0.030451 -0.049774 0.096141 -0.076344 0.0092717 0.011271 0.0041985 -0.016451 0.03969 0.063159 0.053065 -0.015048 0.0082972 0.010114 0.018159 0.045296 0.011967 -0.0091362 0.081224 0.051015 -0.055381 0.016552 0.07684 0.0097784 -0.02388 -0.022074 -0.00027154 -0.044376 0.072596 -0.019622 -0.042408 -0.047222 0.017862 -0.013347 -0.030623 0.047799 -0.0049502 0.048666 0.016523 -0.15484 -0.035953 -0.052241 0.048051 -0.044037 0.015206 -0.0944 -0.0034839 -0.041669 -0.0069687 0.001284 -0.00079073 0.034336 0.04487 0.023392 0.0016214 -0.044769 -0.052089 0.02459 0.053987 0.039455 -0.00018315 0.14048 0.062036 0.10458 -0.021831 -0.13476 0.021402 0.0010463 0.0080677 0.051082 -0.020781 0.071143 0.038554 -0.12825 -0.014845 -0.05954 -0.038643 -0.12097 0.25399 0.014813 0.032217 -0.01092 0.021229 0.077013 0.037507 0.070595 0.047391 -0.012188 -0.027216 0.020433 0.033484 -0.054909 0.039737 -0.028605 -0.019167 -0.052328 -0.016384 0.02952 -0.051257 -0.038421 -0.0078362 -0.008869 -0.16478 0.051959 -0.040577 -0.022596 -0.054667 -0.034249 0.013531 0.010711 -0.057621 -0.018422 -0.068765 0.0063433 0.042582 -0.048535 0.063449 -0.021384 -0.029257 -0.086833 -0.072773 -0.057096 0.063584 0.044821 -0.0013968 -0.056242 0.10206 0.012663 -0.051829 0.025395 -0.048479 0.046207 -0.014295 0.030999 -0.021473 -0.012002 0.014698 -0.0092333 -0.0010852 -0.095917 0.0074269 0.049692 -0.019959 -0.029477 0.023448 0.036461 -0.045025 -0.049783 -0.0020773 0.049944 -0.019638 -0.06748 0.01082 0.047188 0.11261 -0.0097441 -0.018033 -0.032922 -0.033524 -0.10388 0.00022211 0.013594 0.021177 0.012676 -0.050927 -0.010782 0.066691 -0.029196 -0.046031 -0.0455 -0.05292 0.029405 0.0073951 0.072215 -0.068444 -0.053913 0.057479 -0.035577 0.027387 -0.037883 -0.012744 0.030033 0.053267 -0.099434 -0.064851 0.050381 -0.0057297 0.028714 0.064847 0.046415 -0.028199 -0.077436 0.077994 -0.11308 -0.014935 0.15331 -0.076219 0.034384 0.035831 -0.0066978 0.00048492 -0.14619 -0.0041752 -0.089547 0.010469 -0.089986 0.053762 0.045108 -0.075395 0.046281 0.027455 -0.035906 -0.018825 -0.037471 -0.035901 -0.033273 0.0083733 -0.034215 -0.043809 0.0029325 0.03005 -0.022376 0.028309 0.033649 -0.01678 0.040244 0.060936 -0.0019545 0.04698 -0.0040861 0.051785 -0.01355 -0.017168 -0.092586 -0.015103 -0.060009 -0.080448 -0.075149 -0.0055862 -0.0023678 0.033065 -0.035897 0.019452 0.026773 -0.017117 -0.087998 0.029179 -0.046595 0.0064824 0.023014 -0.00047581 -0.057184 0.024666 -0.12492 0.052872 -0.037489 0.02004 -0.0079645 -0.04199 0.03278 0.12079 -0.009484 0.0049173 0.088459 -0.006979 -0.017218 -0.025596 0.047815 0.14495 0.03647 0.018379 0.024227 0.0046728 -0.0085684 0.0049184 0.16384 -0.029826 -0.035426 0.043591 -0.058708 0.029615 0.052087 -0.035903 
dwha -0.031393 -0.0065818 0.11492 0.043819 0.055172 -0.0048652 0.092499 0.027618 0.025326 -0.0019848 0.022023 -0.022996 -0.005133 0.025625 0.025973 -0.054804 0.035044 0.0019481 -0.051837 0.014008 0.021652 -0.003079 0.016812 0.02129 -0.069294 0.053368 -0.10209 0.0078352 0.0052935 0.015678 0.0055055 0.024159 0.01274 0.024774 0.017885 0.027295 -0.0062881 0.0017148 0.054031 0.017057 0.012061 -0.0772 -0.016129 0.0069771 0.040212 0.075131 -0.047992 -0.017757 -0.083831 -0.0075443 -0.019016 0.026213 0.054629 0.045655 -0.077357 0.0020118 0.01866 0.00089889 -0.037741 -0.017175 0.012307 -0.041855 -0.090483 -0.017557 -0.022291 -0.0268 0.010782 -0.07061 0.03361 -0.067367 0.056271 -0.0031242 0.0054494 -0.038691 -0.050504 0.012793 0.020628 0.0032874 0.061618 -0.019926 -0.014967 -0.0039098 -0.033234 0.018304 0.010472 0.030538 -0.00011502 -0.0042925 0.016201 -0.014638 -0.08639 -0.010879 -0.017839 -0.0013782 0.017601 0.16038 -0.019088 0.038676 0.026401 -0.012211 -0.0038691 0.0039456 -0.049097 0.038313 -0.041629 -0.0052025 -0.006475 -0.011835 -0.19871 -0.0024443 0.0049964 -0.063584 -0.011291 0.010217 -0.0059526 -0.031238 -0.087228 0.039248 0.016429 -0.043626 0.019154 0.011407 -0.0096368 -0.0084503 -0.0036822 -0.015003 -0.028617 -0.0048988 0.013839 -0.096121 0.0028673 0.0078237 -0.039639 0.038717 -0.0037659 -0.011856 0.045245 -0.021389 0.035583 0.033879 -0.015819 0.0073592 -0.0091114 -0.10084 0.003486 0.013812 -0.020875 0.0042283 0.028565 0.017222 -0.0016789 0.0037273 0.0048856 -0.072555 -0.02238 0.039865 -0.042747 0.021841 0.070228 0.029155 0.00097677 0.047206 -0.023516 -0.019005 -0.0076519 0.021577 -0.018175 0.011595 0.014472 -0.019459 -0.007886 -0.038926 0.0080244 -0.0032503 -0.011451 0.049245 -0.0095531 0.019133 0.051196 -0.016782 -0.029298 0.0074421 -0.01232 0.0011534 0.0562 -0.0041987 -0.0011692 -0.057193 0.016069 0.037318 -0.054344 0.030747 -0.10409 0.022638 0.0047039 0.021575 -0.029431 -0.0033941 0.0032766 -0.0051193 -0.08021 -0.0028426 -0.023135 0.00029463 0.022507 0.032203 0.015954 0.026883 -0.013921 -0.030095 -0.085863 -0.0081792 0.074668 0.013569 -0.00094626 -0.009378 -0.00083086 -0.028579 -0.086063 0.017862 -0.018538 -0.020106 0.00049872 0.0057187 0.13408 -0.0079998 -0.025589 0.0068675 -0.0026666 -0.0050004 0.006619 -0.042127 0.039616 -0.015364 0.044691 0.011569 -0.026138 -0.022614 -0.016564 -0.019691 0.030281 0.03559 0.0042707 -0.067887 -0.011642 0.051183 -0.023103 -0.059308 -0.025532 -0.0078806 0.02348 0.033933 -0.007252 -0.00044391 0.011391 0.019299 0.01695 -0.026523 -0.0021517 -0.033197 -0.0013991 -0.043147 -0.018174 -0.0095744 0.041698 0.0093823 -0.025475 -0.020507 0.013746 0.036539 0.0050782 -0.017978 0.0046984 -0.02642 -0.007617 0.010359 -0.02576 0.048164 -0.0231 0.0098947 -0.050172 -0.002453 -0.017972 0.022611 -0.014511 -0.0044143 0.012695 -0.044456 -0.015663 0.034541 0.032124 -0.0022453 0.026377 -0.055726 0.038506 0.039245 0.025107 0.025265 -0.028455 -0.025371 
tribbiani -0.0090851 0.0045822 0.027016 0.0057674 -0.0038732 -0.064327 0.033448 -0.0065672 0.025379 -0.033561 -0.0090738 -0.019203 -0.010085 0.00026556 0.010892 -0.013586 0.036789 -0.012394 -0.069341 0.034582 -0.05911 -0.021037 0.010876 0.0033452 -0.048575 0.030561 -0.062731 0.013045 0.0022599 -0.0067558 -0.0089667 0.0083147 0.00046755 0.0086086 0.011251 0.011595 0.0077727 0.018547 0.015562 0.0080734 -0.022023 -0.046815 0.015645 -0.0056813 -0.023391 0.062111 -0.0022224 0.0044363 -0.04084 -0.0027381 0.005165 0.0096916 0.001306 0.017223 -0.013473 -0.0036052 -0.018564 -0.0030244 -0.030418 -0.020537 0.00040045 -0.0059093 -0.047463 -0.0082486 -0.012247 0.00068308 -0.012814 -0.055937 0.0026169 -0.0052322 0.021522 -0.014309 -0.0098088 -0.024639 -0.0088835 -0.0045499 -0.0055706 -0.0042577 0.011584 0.0036863 0.0061026 0.014437 -0.011614 -0.0064781 0.010404 0.012853 -0.0047058 -0.0042117 9.9024e-05 0.011891 -0.027198 -0.010445 -0.073827 0.034125 -0.01375 0.091688 -0.0055247 0.0055635 0.0061004 0.019416 -0.016962 -0.006552 -0.010915 0.0057898 -0.011458 -0.0080781 0.030776 -0.0011939 -0.050486 0.012059 0.0077459 -0.006147 -0.0069582 -0.0091578 -0.0078545 -0.023659 0.0019512 0.01345 0.021665 -0.043776 -0.00847 -0.0090142 -0.012161 0.020458 0.033667 0.019429 -0.019067 0.023775 0.0058251 -0.059494 -0.014323 0.026735 -0.007572 0.026618 0.016891 -0.0091489 0.024681 0.0094679 -0.0027308 -0.00074418 0.0056139 0.0096349 0.0058174 -0.02942 -0.0068582 -0.0091199 0.0082644 -0.022261 0.013532 0.0093056 0.021106 0.027186 0.0086682 -0.042505 -0.0015856 0.019746 -0.0054443 -0.013666 0.040192 -0.0041292 0.00034635 -0.024658 0.011766 -0.025317 0.010975 0.021255 -0.038307 0.015122 0.018323 0.0054866 0.0060945 -0.031499 0.0032759 0.005596 -0.0084854 0.028187 0.00026075 0.010393 -0.0081545 0.0061327 0.0053221 -0.00044753 0.0060105 0.0089791 -0.018113 0.0093961 0.0053383 -0.026185 0.0087827 0.016774 -0.026691 0.01221 -0.046686 0.0065513 -0.0015862 0.0035359 0.013028 -0.013898 0.006538 -0.021207 -0.017536 -0.0063485 0.0061418 0.0056127 0.0045565 0.052319 0.010813 0.0096279 -0.0064859 -0.0025811 0.019334 -0.018817 -0.0066644 -0.019878 -0.018133 -0.0034787 0.013975 -0.0062685 0.0012147 -0.0023834 -0.01158 0.0086539 -0.020285 0.0050132 0.093603 -0.00063125 -0.0094553 0.051489 0.0076499 -0.012013 -0.01702 -0.04004 0.026166 -0.00794 0.001322 0.025236 -0.0081152 -0.013094 3.3491e-05 0.0026573 -0.011618 0.0048004 -0.0040499 -0.018435 -0.021799 0.019008 -0.026548 -0.038435 -0.018807 -0.0012636 0.014768 0.027392 0.013893 -0.0057372 0.040507 0.051518 -0.0010597 -0.0027335 -0.0089685 0.0075806 -0.012937 -0.0066973 -0.00025167 -0.0071182 0.050019 0.012781 -0.0061878 -0.030481 0.05711 0.021752 0.050761 0.0014886 0.024469 -0.035031 0.0008974 -0.0048536 -0.025735 0.014906 -0.020079 0.0088319 -0.054759 -0.01906 0.0070773 0.012262 -0.00076783 -0.0046546 -0.017286 -0.0824 -0.003078 0.025905 0.048768 0.014468 -0.07801 -0.020796 0.0045408 0.023947 0.046176 -0.0048321 -0.023998 -0.003903 
treeger -0.0083042 0.017872 0.058601 0.03481 -0.006677 -0.065201 0.039353 -0.0095862 -0.0085468 -0.047789 -0.0086605 -0.013149 0.018856 -0.010565 0.025502 -0.01387 -0.0072142 -0.0021495 -0.040768 -0.0059708 -0.02689 0.018348 0.025347 0.021969 -0.042267 0.018987 -0.087246 0.021882 -0.010585 0.0077119 -0.021545 0.0038794 -0.0033983 -0.0048089 0.0037117 0.004869 0.028519 0.020959 0.0019926 -0.012347 -0.00039718 -0.021904 -0.0050661 0.0011447 -0.028411 0.068785 0.00029092 -0.018917 -0.037287 -0.01421 0.002305 -0.0027661 0.0084575 4.9373e-05 -0.010178 -0.0027152 -0.0030685 -0.010933 -0.028439 -0.016539 -0.01047 -0.010264 -0.070929 -0.022144 -0.0014978 -0.00035959 -0.010039 -0.028667 -0.0013546 -0.027293 0.0051547 0.010545 -0.0036232 -0.015678 -0.021198 0.025133 0.0028777 -0.0021286 0.015597 0.0064744 -0.0099488 -0.022485 -0.026462 0.010819 0.0039841 0.023697 0.0039949 -0.014294 -0.015139 0.0052247 -0.040697 -0.012253 -0.043687 0.043252 -0.016632 0.13475 -0.0026424 -0.016663 0.0099112 0.0025389 -0.012675 0.0071267 0.0053484 0.01523 0.0079782 -0.0071823 -0.011537 -0.0014445 -0.061203 -0.0057429 -0.0052939 -0.011155 0.012174 -0.010652 -0.0067221 -0.019566 -0.024816 0.012945 0.013252 -0.038283 -0.029439 -0.008085 -0.031305 -0.0049775 0.032 0.017511 0.018042 -0.013126 0.01297 -0.062067 -0.020359 0.018897 -0.0049562 0.020586 0.005547 -0.0037878 0.0347 0.0017217 0.020242 -0.011286 0.012022 0.0091374 0.01253 -0.0080505 -0.0068667 0.0090084 0.011219 0.046429 -0.012126 0.019792 0.012537 -0.031267 0.02743 -0.035151 -0.01755 0.01564 0.016968 -0.0090456 -0.0049576 0.025873 -0.0080239 -0.018566 -0.010487 -0.005104 -0.011128 0.034996 -0.022552 0.0059322 0.010932 0.0056844 -0.0017065 -0.0061357 0.010954 0.036146 0.0013242 0.0073994 -0.0024132 0.0066649 0.012583 0.0036832 -0.0153 0.011099 -0.0073766 -0.032709 -0.017197 -0.018248 0.00098506 0.017822 0.0077968 0.015136 -0.039225 0.019612 -0.054643 0.0040556 -0.0017656 0.018548 0.044349 -0.014774 -0.010664 -0.017147 -0.022576 0.0079279 0.012665 0.01706 0.019538 0.054347 0.0042201 -0.0033219 -0.0075746 0.0069783 -0.005973 -0.013019 -0.024318 -0.060653 -0.028934 0.0027731 0.0084637 -0.025869 -0.068471 -0.0097078 0.00054584 -0.015761 -0.021 -0.0050285 0.12131 0.015608 -0.00035608 0.076392 -0.023592 -0.017177 0.011291 -0.022706 0.038191 -0.0097875 0.0041339 0.036129 -0.01425 -0.019942 0.006512 -0.012282 -0.0052622 0.01393 -0.0098936 -0.012004 -0.015012 0.043335 -0.0064951 -0.063732 -0.011291 -0.017011 0.012445 0.020614 0.012938 0.030974 0.00084812 0.036915 -0.014469 -0.0025573 -0.0062381 -0.0038075 0.0078563 -0.0039541 -0.00412 -0.0058664 0.027038 0.0083687 -0.01838 -0.017372 0.027128 0.02055 0.043795 -0.0040629 0.0044355 -0.015435 -0.014505 0.012431 0.015593 0.0054796 -0.019498 -0.0057933 -0.065816 -0.006988 0.0083877 0.032274 0.0036379 -0.020847 -0.018433 -0.13679 0.0028586 -0.0040086 0.0068263 0.027091 -0.099215 -0.03626 0.04965 0.030293 0.020061 -0.0039858 -0.053711 0.0062431 
What -0.0073051 0.024658 0.086058 -0.0061637 0.029645 0.037537 0.060367 0.0084108 -0.017328 0.037424 -0.0079339 -0.021125 0.018328 -0.033096 -0.019843 -0.0080865 0.048717 0.017737 -0.047524 0.071276 0.018786 -0.017908 -0.010975 0.017336 0.027385 -0.0017919 -0.039559 -0.00019847 -0.013273 0.0027365 -0.032533 0.0041171 0.010532 0.032826 -0.030501 0.027205 0.02229 0.018393 0.017567 0.051184 0.04981 -0.034035 0.0048809 0.030353 -0.011627 0.048544 0.010398 -0.035779 -0.065178 0.003382 -0.017461 -0.017402 0.034572 -0.025723 -0.03284 -0.016117 0.090688 -0.018042 0.0018755 0.046917 -0.0033955 -0.017094 -0.088626 -0.0072155 3.6876e-05 0.02261 0.010746 -0.13203 0.0065676 -0.029844 0.029271 -0.0090255 -0.010466 -0.0069038 0.037078 0.036099 -0.018417 -0.0074657 0.12987 0.0053152 0.019707 -0.024346 -0.10852 0.014503 0.0019377 0.011783 0.019623 -0.005266 0.071753 -0.0016514 -0.039537 -0.014702 -0.035803 0.070511 -0.060774 0.16062 -0.013715 7.0748e-05 0.0080524 -0.040325 0.0062065 0.014429 0.040999 0.022749 -0.040905 0.023413 -0.013566 0.017392 -0.048227 0.017107 -0.01649 -0.019805 -0.00011472 -0.029134 -0.0082756 -0.031424 -0.094555 -0.018748 0.027819 -0.1234 0.012736 -0.014811 -0.0097513 -0.02793 -0.039337 0.033787 -0.0011261 -0.0024803 0.014573 -0.0039344 0.0074708 0.016728 -0.027284 0.041502 0.0038478 0.0164 -0.031097 -0.044791 -0.0066633 -0.0046404 0.039183 -0.01598 -0.031283 0.10697 -0.0015259 -0.014892 0.008391 0.030056 0.041037 0.0010746 -0.0062094 -0.014716 -0.0040941 0.0097781 0.008918 -0.010565 -0.19667 -0.058042 0.021783 -0.021871 -0.024318 0.074109 0.0026476 0.0037915 0.0086446 0.06617 0.020239 -0.018914 -0.02323 -3.7916e-05 0.033951 0.065283 0.03037 -0.030207 -0.010506 -0.014701 -0.080619 -0.014363 0.058736 0.02184 -0.026243 -0.025306 -0.018798 0.039026 -0.035832 -0.029585 -0.011337 -0.11425 0.029618 0.013538 0.051798 -0.048367 -0.04313 0.032331 -0.014623 0.031982 -0.0081281 0.015647 0.0097695 0.029736 -0.067402 0.0076311 0.022167 0.018441 0.016983 0.069457 0.0082347 0.018955 -0.059195 0.026419 -0.10588 -0.0049773 0.11222 -0.01734 0.01718 0.019625 -0.0094732 0.0021972 -0.080401 -0.0011098 -0.022433 -0.009087 -0.035477 0.0085628 0.094727 0.011961 0.046983 0.029264 0.012862 -0.015021 -0.040664 0.01047 -0.02972 -0.020182 -0.021921 -0.029194 -0.021175 0.037687 -0.028507 0.03704 0.0011017 -0.010708 0.02781 0.025869 -0.010996 -0.022586 0.007883 0.1043 -0.0318 -0.010908 -0.064597 0.00074228 0.0074771 -0.0094689 -0.041676 -0.0034439 0.012092 0.036146 -0.011068 -0.0012462 0.033351 -0.0046039 0.0039505 0.0040553 0.014157 -0.0032356 0.010762 -0.0045483 -0.01934 0.040491 -0.093424 0.017682 -0.050087 0.01748 -0.0041891 0.0040446 -0.031545 -0.0086066 -0.019915 -0.029459 0.064579 -0.0022685 0.0050409 -0.062032 0.013269 0.11051 0.021919 0.064762 0.0095396 0.014933 0.0079945 -0.0072217 0.068885 -0.030246 -0.031908 0.10353 -0.027611 0.015919 0.03422 -0.024364 
Why -0.023337 -0.02998 0.051501 -0.0027085 -0.030472 0.084739 0.083153 -0.041856 0.0024277 0.056064 -0.011452 -0.099545 -0.016321 -0.039737 -0.018637 -0.037579 0.046991 0.030451 -0.049774 0.096141 -0.076344 0.0092717 0.011271 0.0041985 -0.016451 0.03969 0.063159 0.053065 -0.015048 0.0082972 0.010114 0.018159 0.045296 0.011967 -0.0091362 0.081224 0.051015 -0.055381 0.016552 0.07684 0.0097784 -0.02388 -0.022074 -0.00027154 -0.044376 0.072596 -0.019622 -0.042408 -0.047222 0.017862 -0.013347 -0.030623 0.047799 -0.0049502 0.048666 0.016523 -0.15484 -0.035953 -0.052241 0.048051 -0.044037 0.015206 -0.0944 -0.0034839 -0.041669 -0.0069687 0.001284 -0.00079073 0.034336 0.04487 0.023392 0.0016214 -0.044769 -0.052089 0.02459 0.053987 0.039455 -0.00018315 0.14048 0.062036 0.10458 -0.021831 -0.13476 0.021402 0.0010463 0.0080677 0.051082 -0.020781 0.071143 0.038554 -0.12825 -0.014845 -0.05954 -0.038643 -0.12097 0.25399 0.014813 0.032217 -0.01092 0.021229 0.077013 0.037507 0.070595 0.047391 -0.012188 -0.027216 0.020433 0.033484 -0.054909 0.039737 -0.028605 -0.019167 -0.052328 -0.016384 0.02952 -0.051257 -0.038421 -0.0078362 -0.008869 -0.16478 0.051959 -0.040577 -0.022596 -0.054667 -0.034249 0.013531 0.010711 -0.057621 -0.018422 -0.068765 0.0063433 0.042582 -0.048535 0.063449 -0.021384 -0.029257 -0.086833 -0.072773 -0.057096 0.063584 0.044821 -0.0013968 -0.056242 0.10206 0.012663 -0.051829 0.025395 -0.048479 0.046207 -0.014295 0.030999 -0.021473 -0.012002 0.014698 -0.0092333 -0.0010852 -0.095917 0.0074269 0.049692 -0.019959 -0.029477 0.023448 0.036461 -0.045025 -0.049783 -0.0020773 0.049944 -0.019638 -0.06748 0.01082 0.047188 0.11261 -0.0097441 -0.018033 -0.032922 -0.033524 -0.10388 0.00022211 0.013594 0.021177 0.012676 -0.050927 -0.010782 0.066691 -0.029196 -0.046031 -0.0455 -0.05292 0.029405 0.0073951 0.072215 -0.068444 -0.053913 0.057479 -0.035577 0.027387 -0.037883 -0.012744 0.030033 0.053267 -0.099434 -0.064851 0.050381 -0.0057297 0.028714 0.064847 0.046415 -0.028199 -0.077436 0.077994 -0.11308 -0.014935 0.15331 -0.076219 0.034384 0.035831 -0.0066978 0.00048492 -0.14619 -0.0041752 -0.089547 0.010469 -0.089986 0.053762 0.045108 -0.075395 0.046281 0.027455 -0.035906 -0.018825 -0.037471 -0.035901 -0.033273 0.0083733 -0.034215 -0.043809 0.0029325 0.03005 -0.022376 0.028309 0.033649 -0.01678 0.040244 0.060936 -0.0019545 0.04698 -0.0040861 0.051785 -0.01355 -0.017168 -0.092586 -0.015103 -0.060009 -0.080448 -0.075149 -0.0055862 -0.0023678 0.033065 -0.035897 0.019452 0.026773 -0.017117 -0.087998 0.029179 -0.046595 0.0064824 0.023014 -0.00047581 -0.057184 0.024666 -0.12492 0.052872 -0.037489 0.02004 -0.0079645 -0.04199 0.03278 0.12079 -0.009484 0.0049173 0.088459 -0.006979 -0.017218 -0.025596 0.047815 0.14495 0.03647 0.018379 0.024227 0.0046728 -0.0085684 0.0049184 0.16384 -0.029826 -0.035426 0.043591 -0.058708 0.029615 0.052087 -0.035903 
I 0.12265 0.13758 -0.1511 0.016203 -0.055427 0.18189 -0.14827 -0.00084638 -0.14135 -0.054655 -0.09753 -0.042509 0.0011976 0.028021 0.094223 -0.047281 -0.035838 0.15779 -0.13601 0.20393 -0.082468 0.055095 -0.059914 -0.086976 0.022967 -0.045869 0.52937 -0.025973 0.068284 0.049782 -0.089347 0.036094 0.029925 0.17239 -0.10936 -0.10797 0.063193 -0.0015101 0.031422 0.015378 -0.16267 0.28551 -0.042807 0.14682 -0.012197 -0.031903 -0.089874 0.030871 -0.24541 0.08291 0.05158 -0.074192 0.081966 0.090222 -0.15609 0.048474 0.057056 -0.030221 0.090718 0.0056816 0.0020752 -0.10346 0.09476 -0.031796 0.024356 -0.017059 0.021256 0.018162 -0.056078 -0.30083 -0.013705 -0.071567 -0.076775 -0.033709 0.05494 0.061508 0.088465 -0.17169 -0.26193 0.00035817 0.080032 -0.044856 -0.6585 0.011504 0.11952 -0.079624 -0.083063 0.010819 0.0046649 -0.032887 0.072047 0.020154 0.26087 0.17198 -0.094619 0.27725 0.037225 -0.091599 0.0093609 0.018334 -0.031668 0.072562 -0.013337 0.013991 -0.0067309 0.0041798 0.014092 0.039363 0.14057 0.05706 -0.1332 -0.013067 0.063615 0.010602 -0.081909 -0.020131 0.16527 -0.052356 0.060453 -1.2496 0.028504 -0.13615 -0.0041187 0.039939 -0.0032853 0.059303 0.14219 -0.016383 -0.15454 0.20781 -0.035294 0.049153 -0.022198 -0.21481 -0.045617 0.078901 0.040172 -0.026188 0.41413 0.054147 0.090221 -0.064792 -0.29044 -0.15438 -0.074148 -0.040828 -0.033987 -0.21105 -0.038352 0.002915 0.074231 0.040383 -0.18481 -0.6543 0.00037022 0.10989 0.037448 -0.14637 -0.083789 -0.021992 -0.072245 -0.039314 -0.11605 -0.08558 -0.052339 -0.23929 0.072578 0.026047 -0.04991 0.066278 0.041601 0.25992 0.067436 -0.019961 0.00066897 0.11441 -0.46518 0.11767 -0.038931 0.14233 -0.22135 -0.11914 0.013956 -0.55013 0.055992 -0.061109 0.048785 -0.058773 0.055366 0.027113 -0.047739 -0.076163 -0.5569 -0.028183 -0.05163 0.059363 -0.19193 -0.045061 -0.095695 0.16591 0.22161 0.024268 -0.053214 0.047793 0.022931 -0.021022 0.043849 0.011225 0.043636 0.065162 -1.3138 0.07503 0.23732 -0.0174 -0.089191 -0.0010803 0.17729 -0.060325 0.077586 -0.042776 0.13926 0.088081 0.63512 -0.030497 0.15457 0.092672 0.041795 -0.10375 0.11435 -0.021819 0.11883 -0.013766 0.13761 0.061188 -0.046851 -0.044113 -0.087455 0.054876 -0.020757 -0.011125 -0.21494 -0.015356 0.034967 -0.1239 -0.024167 -0.15871 0.0082736 0.26221 -0.049612 -0.1567 0.052089 -0.075662 0.010964 -0.066963 -0.11314 -0.28877 -0.042215 0.053224 0.012865 0.048852 -0.040854 -0.031702 0.055991 0.052822 0.2929 -0.0019861 -0.020557 -0.096402 -0.0086524 0.0039811 -0.02503 -0.035045 0.092169 0.050756 0.029895 -0.072753 0.020579 -0.087316 0.12438 0.063317 -0.033816 0.16432 0.0071273 0.092582 -0.001348 0.14612 -0.038118 -0.18036 0.037967 -0.084481 -0.063387 0.013543 0.52618 0.028302 0.12999 -0.020943 -0.06069 -0.05698 -0.040118 -0.04467 
I 0.12265 0.13758 -0.1511 0.016203 -0.055427 0.18189 -0.14827 -0.00084638 -0.14135 -0.054655 -0.09753 -0.042509 0.0011976 0.028021 0.094223 -0.047281 -0.035838 0.15779 -0.13601 0.20393 -0.082468 0.055095 -0.059914 -0.086976 0.022967 -0.045869 0.52937 -0.025973 0.068284 0.049782 -0.089347 0.036094 0.029925 0.17239 -0.10936 -0.10797 0.063193 -0.0015101 0.031422 0.015378 -0.16267 0.28551 -0.042807 0.14682 -0.012197 -0.031903 -0.089874 0.030871 -0.24541 0.08291 0.05158 -0.074192 0.081966 0.090222 -0.15609 0.048474 0.057056 -0.030221 0.090718 0.0056816 0.0020752 -0.10346 0.09476 -0.031796 0.024356 -0.017059 0.021256 0.018162 -0.056078 -0.30083 -0.013705 -0.071567 -0.076775 -0.033709 0.05494 0.061508 0.088465 -0.17169 -0.26193 0.00035817 0.080032 -0.044856 -0.6585 0.011504 0.11952 -0.079624 -0.083063 0.010819 0.0046649 -0.032887 0.072047 0.020154 0.26087 0.17198 -0.094619 0.27725 0.037225 -0.091599 0.0093609 0.018334 -0.031668 0.072562 -0.013337 0.013991 -0.0067309 0.0041798 0.014092 0.039363 0.14057 0.05706 -0.1332 -0.013067 0.063615 0.010602 -0.081909 -0.020131 0.16527 -0.052356 0.060453 -1.2496 0.028504 -0.13615 -0.0041187 0.039939 -0.0032853 0.059303 0.14219 -0.016383 -0.15454 0.20781 -0.035294 0.049153 -0.022198 -0.21481 -0.045617 0.078901 0.040172 -0.026188 0.41413 0.054147 0.090221 -0.064792 -0.29044 -0.15438 -0.074148 -0.040828 -0.033987 -0.21105 -0.038352 0.002915 0.074231 0.040383 -0.18481 -0.6543 0.00037022 0.10989 0.037448 -0.14637 -0.083789 -0.021992 -0.072245 -0.039314 -0.11605 -0.08558 -0.052339 -0.23929 0.072578 0.026047 -0.04991 0.066278 0.041601 0.25992 0.067436 -0.019961 0.00066897 0.11441 -0.46518 0.11767 -0.038931 0.14233 -0.22135 -0.11914 0.013956 -0.55013 0.055992 -0.061109 0.048785 -0.058773 0.055366 0.027113 -0.047739 -0.076163 -0.5569 -0.028183 -0.05163 0.059363 -0.19193 -0.045061 -0.095695 0.16591 0.22161 0.024268 -0.053214 0.047793 0.022931 -0.021022 0.043849 0.011225 0.043636 0.065162 -1.3138 0.07503 0.23732 -0.0174 -0.089191 -0.0010803 0.17729 -0.060325 0.077586 -0.042776 0.13926 0.088081 0.63512 -0.030497 0.15457 0.092672 0.041795 -0.10375 0.11435 -0.021819 0.11883 -0.013766 0.13761 0.061188 -0.046851 -0.044113 -0.087455 0.054876 -0.020757 -0.011125 -0.21494 -0.015356 0.034967 -0.1239 -0.024167 -0.15871 0.0082736 0.26221 -0.049612 -0.1567 0.052089 -0.075662 0.010964 -0.066963 -0.11314 -0.28877 -0.042215 0.053224 0.012865 0.048852 -0.040854 -0.031702 0.055991 0.052822 0.2929 -0.0019861 -0.020557 -0.096402 -0.0086524 0.0039811 -0.02503 -0.035045 0.092169 0.050756 0.029895 -0.072753 0.020579 -0.087316 0.12438 0.063317 -0.033816 0.16432 0.0071273 0.092582 -0.001348 0.14612 -0.038118 -0.18036 0.037967 -0.084481 -0.063387 0.013543 0.52618 0.028302 0.12999 -0.020943 -0.06069 -0.05698 -0.040118 -0.04467 
What -0.0073051 0.024658 0.086058 -0.0061637 0.029645 0.037537 0.060367 0.0084108 -0.017328 0.037424 -0.0079339 -0.021125 0.018328 -0.033096 -0.019843 -0.0080865 0.048717 0.017737 -0.047524 0.071276 0.018786 -0.017908 -0.010975 0.017336 0.027385 -0.0017919 -0.039559 -0.00019847 -0.013273 0.0027365 -0.032533 0.0041171 0.010532 0.032826 -0.030501 0.027205 0.02229 0.018393 0.017567 0.051184 0.04981 -0.034035 0.0048809 0.030353 -0.011627 0.048544 0.010398 -0.035779 -0.065178 0.003382 -0.017461 -0.017402 0.034572 -0.025723 -0.03284 -0.016117 0.090688 -0.018042 0.0018755 0.046917 -0.0033955 -0.017094 -0.088626 -0.0072155 3.6876e-05 0.02261 0.010746 -0.13203 0.0065676 -0.029844 0.029271 -0.0090255 -0.010466 -0.0069038 0.037078 0.036099 -0.018417 -0.0074657 0.12987 0.0053152 0.019707 -0.024346 -0.10852 0.014503 0.0019377 0.011783 0.019623 -0.005266 0.071753 -0.0016514 -0.039537 -0.014702 -0.035803 0.070511 -0.060774 0.16062 -0.013715 7.0748e-05 0.0080524 -0.040325 0.0062065 0.014429 0.040999 0.022749 -0.040905 0.023413 -0.013566 0.017392 -0.048227 0.017107 -0.01649 -0.019805 -0.00011472 -0.029134 -0.0082756 -0.031424 -0.094555 -0.018748 0.027819 -0.1234 0.012736 -0.014811 -0.0097513 -0.02793 -0.039337 0.033787 -0.0011261 -0.0024803 0.014573 -0.0039344 0.0074708 0.016728 -0.027284 0.041502 0.0038478 0.0164 -0.031097 -0.044791 -0.0066633 -0.0046404 0.039183 -0.01598 -0.031283 0.10697 -0.0015259 -0.014892 0.008391 0.030056 0.041037 0.0010746 -0.0062094 -0.014716 -0.0040941 0.0097781 0.008918 -0.010565 -0.19667 -0.058042 0.021783 -0.021871 -0.024318 0.074109 0.0026476 0.0037915 0.0086446 0.06617 0.020239 -0.018914 -0.02323 -3.7916e-05 0.033951 0.065283 0.03037 -0.030207 -0.010506 -0.014701 -0.080619 -0.014363 0.058736 0.02184 -0.026243 -0.025306 -0.018798 0.039026 -0.035832 -0.029585 -0.011337 -0.11425 0.029618 0.013538 0.051798 -0.048367 -0.04313 0.032331 -0.014623 0.031982 -0.0081281 0.015647 0.0097695 0.029736 -0.067402 0.0076311 0.022167 0.018441 0.016983 0.069457 0.0082347 0.018955 -0.059195 0.026419 -0.10588 -0.0049773 0.11222 -0.01734 0.01718 0.019625 -0.0094732 0.0021972 -0.080401 -0.0011098 -0.022433 -0.009087 -0.035477 0.0085628 0.094727 0.011961 0.046983 0.029264 0.012862 -0.015021 -0.040664 0.01047 -0.02972 -0.020182 -0.021921 -0.029194 -0.021175 0.037687 -0.028507 0.03704 0.0011017 -0.010708 0.02781 0.025869 -0.010996 -0.022586 0.007883 0.1043 -0.0318 -0.010908 -0.064597 0.00074228 0.0074771 -0.0094689 -0.041676 -0.0034439 0.012092 0.036146 -0.011068 -0.0012462 0.033351 -0.0046039 0.0039505 0.0040553 0.014157 -0.0032356 0.010762 -0.0045483 -0.01934 0.040491 -0.093424 0.017682 -0.050087 0.01748 -0.0041891 0.0040446 -0.031545 -0.0086066 -0.019915 -0.029459 0.064579 -0.0022685 0.0050409 -0.062032 0.013269 0.11051 0.021919 0.064762 0.0095396 0.014933 0.0079945 -0.0072217 0.068885 -0.030246 -0.031908 0.10353 -0.027611 0.015919 0.03422 -0.024364 
